{"learner":{"attributes":{},"feature_names":["window_events","distinct_templates","n_sqli","n_traversal","n_auth_fail","n_scanner","n_schema_reject","n_other","n_suspicious_other","benign_ratio","auth_fail_ratio","err_4xx_ratio","max_auth_attempt"],"feature_types":[],"gradient_booster":{"model":{"cats":{"enc":[],"feature_segments":[],"sorted_idx":[]},"gbtree_model_param":{"num_parallel_tree":"1","num_trees":"120"},"iteration_indptr":[0,3,6,9,12,15,18,21,24,27,30,33,36,39,42,45,48,51,54,57,60,63,66,69,72,75,78,81,84,87,90,93,96,99,102,105,108,111,114,117,120],"tree_info":[0,1,2,0,1,2,0,1,2,0,1,2,0,1,2,0,1,2,0,1,2,0,1,2,0,1,2,0,1,2,0,1,2,0,1,2,0,1,2,0,1,2,0,1,2,0,1,2,0,1,2,0,1,2,0,1,2,0,1,2,0,1,2,0,1,2,0,1,2,0,1,2,0,1,2,0,1,2,0,1,2,0,1,2,0,1,2,0,1,2,0,1,2,0,1,2,0,1,2,0,1,2,0,1,2,0,1,2,0,1,2,0,1,2,0,1,2,0,1,2],"trees":[{"base_weights":[1.4069093E-6,-8.500359E-1,2.605942E-1,-1.0122889E0,2.590556E-1,-8.051354E-2,-3.486964E-1],"categories":[],"categories_nodes":[],"categories_segments":[],"categories_sizes":[],"default_left":[0,0,0,0,0,0,0],"id":0,"left_children":[1,3,-1,5,-1,-1,-1],"loss_changes":[2.599398E3,4.955603E2,0E0,1.8114673E2,0E0,0E0,0E0],"parents":[2147483647,0,0,1,1,3,3],"right_children":[2,4,-1,6,-1,-1,-1],"split_conditions":[8.75E-1,1E0,2.605942E-1,1.4285715E-1,2.590556E-1,-8.051354E-2,-3.486964E-1],"split_indices":[9,6,0,11,0,0,0],"split_type":[0,0,0,0,0,0,0],"sum_hessian":[3.5184004E3,1.7782582E3,1.7401422E3,1.6248168E3,1.5344135E2,2.731647E2,1.3516521E3],"tree_param":{"num_deleted":"0","num_feature":"13","num_nodes":"7","size_leaf_vector":"1"}},{"base_weights":[-1.4544167E-6,-2.0699355E-1,8.1650794E-1,-1.8337128E-1,1.3863368E0,8.1728745E-1,-1.8236288E-1],"categories":[],"categories_nodes":[],"categories_segments":[],"categories_sizes":[],"default_left":[0,0,0,0,0,0,0],"id":1,"left_children":[1,3,-1,-1,5,-1,-1],"loss_changes":[1.211466E3,1.2880117E3,0E0,0E0,1.0815137E3,0E0,0E0],"parents":[2147483647,0,0,1,1,4,4],"right_children":[2,4,-1,-1,6,-1,-1],"split_conditions":[1E0,1.4285715E-1,8.1650794E-1,-1.8337128E-1,3E0,8.1728745E-1,-1.8236288E-1],"split_indices":[8,10,0,0,12,0,0],"split_type":[0,0,0,0,0,0,0],"sum_hessian":[2.148394E3,1.9974097E3,1.5098436E2,1.5936907E3,4.0371906E2,2.4139595E2,1.623231E2],"tree_param":{"num_deleted":"0","num_feature":"13","num_nodes":"7","size_leaf_vector":"1"}},{"base_weights":[-7.235159E-7,1.4683789E0,-5.2839106E-1,1.7289664E0,-1.953884E-1,-5.716698E-1,6.0046434E-1,1.6618618E-1,5.9244794E-1,-1.8476853E-1,6.0025245E-1],"categories":[],"categories_nodes":[],"categories_segments":[],"categories_sizes":[],"default_left":[0,0,0,0,0,0,0,0,0,0,0],"id":2,"left_children":[1,3,5,7,-1,9,-1,-1,-1,-1,-1],"loss_changes":[2.0522979E3,3.8775696E2,2.1412598E2,1.7905835E2,0E0,2.1890045E2,0E0,0E0,0E0,0E0,0E0],"parents":[2147483647,0,0,1,1,2,2,3,3,5,5],"right_children":[2,4,6,8,-1,10,-1,-1,-1,-1,-1],"split_conditions":[5E-1,1E0,1E0,4E0,-1.953884E-1,1E0,6.0046434E-1,1.6618618E-1,5.9244794E-1,-1.8476853E-1,6.0025245E-1],"split_indices":[9,7,5,0,0,3,0,0,0,0,0],"split_type":[0,0,0,0,0,0,0,0,0,0,0],"sum_hessian":[2.6431309E3,6.989613E2,1.9441697E3,6.226042E2,7.635712E1,1.9122318E3,3.1937832E1,1.08294945E2,5.143092E2,1.8806611E3,3.157073E1],"tree_param":{"num_deleted":"0","num_feature":"13","num_nodes":"11","size_leaf_vector":"1"}},{"base_weights":[2.6993632E-2,-6.050447E-1,2.2084208E-1,-7.239167E-1,2.268765E-1,-2.597418E-1,-7.547725E-2],"categories":[],"categories_nodes":[],"categories_segments":[],"categories_sizes":[],"default_left":[0,0,0,0,0,0,0],"id":3,"left_children":[1,3,-1,5,-1,-1,-1],"loss_changes":[1.4778889E3,2.8267725E2,0E0,1.07276855E2,0E0,0E0,0E0],"parents":[2147483647,0,0,1,1,3,3],"right_children":[2,4,-1,6,-1,-1,-1],"split_conditions":[8.75E-1,1E0,2.2084208E-1,1E0,2.268765E-1,-2.597418E-1,-7.547725E-2],"split_indices":[9,6,0,7,0,0,0],"split_type":[0,0,0,0,0,0,0],"sum_hessian":[3.2953357E3,1.7424742E3,1.5528613E3,1.6029674E3,1.3950679E2,1.2320266E3,3.7094086E2],"tree_param":{"num_deleted":"0","num_feature":"13","num_nodes":"7","size_leaf_vector":"1"}},{"base_weights":[-2.9386336E-2,-1.745846E-1,3.7806886E-1,6.7951375E-1,-1.752885E-1,2.5288442E-1,-1.7616484E-1],"categories":[],"categories_nodes":[],"categories_segments":[],"categories_sizes":[],"default_left":[0,0,0,0,0,0,0],"id":4,"left_children":[1,-1,3,5,-1,-1,-1],"loss_changes":[4.6902948E2,0E0,3.4825677E2,1.8962561E2,0E0,0E0,0E0],"parents":[2147483647,0,0,2,2,3,3],"right_children":[2,-1,4,6,-1,-1,-1],"split_conditions":[1.4285715E-1,-1.745846E-1,9E0,1E0,-1.752885E-1,2.5288442E-1,-1.7616484E-1],"split_indices":[11,0,0,3,0,0,0],"split_type":[0,0,0,0,0,0,0],"sum_hessian":[2.0812615E3,8.8315717E2,1.1981042E3,9.1255505E2,2.855492E2,8.0856775E2,1.0398736E2],"tree_param":{"num_deleted":"0","num_feature":"13","num_nodes":"7","size_leaf_vector":"1"}},{"base_weights":[-1.100308E-2,8.7174094E-1,-4.7683063E-1,9.956852E-1,-1.8505758E-1,-5.200714E-1,6.255727E-1,3.115752E-1,-2.122811E-1,-1.6944262E-1,3.317693E-1],"categories":[],"categories_nodes":[],"categories_segments":[],"categories_sizes":[],"default_left":[0,0,0,0,0,0,0,0,0,0,0],"id":5,"left_children":[1,3,5,7,-1,9,-1,-1,-1,-1,-1],"loss_changes":[1.0389774E3,1.6164307E2,1.8431061E2,5.9633667E1,0E0,1.1899158E2,0E0,0E0,0E0,0E0,0E0],"parents":[2147483647,0,0,1,1,2,2,3,3,5,5],"right_children":[2,4,6,8,-1,10,-1,-1,-1,-1,-1],"split_conditions":[5E-1,1E0,1E0,1E0,-1.8505758E-1,1E0,6.255727E-1,3.115752E-1,-2.122811E-1,-1.6944262E-1,3.317693E-1],"split_indices":[9,7,2,6,0,5,0,0,0,0,0],"split_type":[0,0,0,0,0,0,0,0,0,0,0],"sum_hessian":[2.524645E3,8.7176935E2,1.6528757E3,8.050686E2,6.670079E1,1.6262266E3,2.6649216E1,7.85671E2,1.9397564E1,1.5833154E3,4.291113E1],"tree_param":{"num_deleted":"0","num_feature":"13","num_nodes":"11","size_leaf_vector":"1"}},{"base_weights":[2.7505351E-2,-5.0374E-1,1.9849767E-1,-6.049751E-1,2.0578116E-1,-3.7345752E-2,-2.1711709E-1],"categories":[],"categories_nodes":[],"categories_segments":[],"categories_sizes":[],"default_left":[0,0,0,0,0,0,0],"id":6,"left_children":[1,3,-1,5,-1,-1,-1],"loss_changes":[9.726591E2,1.8963162E2,0E0,8.255231E1,0E0,0E0,0E0],"parents":[2147483647,0,0,1,1,3,3],"right_children":[2,4,-1,6,-1,-1,-1],"split_conditions":[8.75E-1,1E0,1.9849767E-1,1.5E-1,2.0578116E-1,-3.7345752E-2,-2.1711709E-1],"split_indices":[9,6,0,11,0,0,0],"split_type":[0,0,0,0,0,0,0],"sum_hessian":[2.8851724E3,1.5700826E3,1.3150896E3,1.4474076E3,1.2267511E2,2.872327E2,1.1601748E3],"tree_param":{"num_deleted":"0","num_feature":"13","num_nodes":"7","size_leaf_vector":"1"}},{"base_weights":[-2.460469E-2,-1.6858144E-1,2.9929033E-1,5.1203054E-1,-1.6896781E-1,1.9596066E-1,-1.7992647E-1],"categories":[],"categories_nodes":[],"categories_segments":[],"categories_sizes":[],"default_left":[0,0,0,0,0,0,0],"id":7,"left_children":[1,-1,3,5,-1,-1,-1],"loss_changes":[3.2817575E2,0E0,2.1617174E2,1.4859805E2,0E0,0E0,0E0],"parents":[2147483647,0,0,2,2,3,3],"right_children":[2,-1,4,6,-1,-1,-1],"split_conditions":[1.4285715E-1,-1.6858144E-1,9E0,1E0,-1.6896781E-1,1.9596066E-1,-1.7992647E-1],"split_indices":[11,0,0,5,0,0,0],"split_type":[0,0,0,0,0,0,0],"sum_hessian":[1.8836718E3,7.0814404E2,1.1755277E3,9.4327466E2,2.3225298E2,8.373612E2,1.059135E2],"tree_param":{"num_deleted":"0","num_feature":"13","num_nodes":"7","size_leaf_vector":"1"}},{"base_weights":[-1.4622151E-2,5.828298E-1,-4.906436E-1,7.05245E-1,-1.792027E-1,-5.199864E-1,3.4621266E-1,4.3875214E-2,2.479365E-1,-1.6549975E-1,3.1410733E-1],"categories":[],"categories_nodes":[],"categories_segments":[],"categories_sizes":[],"default_left":[0,0,0,0,0,0,0,0,0,0,0],"id":8,"left_children":[1,3,5,7,-1,9,-1,-1,-1,-1,-1],"loss_changes":[6.4239764E2,1.4513025E2,6.126883E1,6.1399353E1,0E0,6.1924377E1,0E0,0E0,0E0,0E0,0E0],"parents":[2147483647,0,0,1,1,2,2,3,3,5,5],"right_children":[2,4,6,8,-1,10,-1,-1,-1,-1,-1],"split_conditions":[5.4545456E-1,1E0,1E0,4E0,-1.792027E-1,1E0,3.4621266E-1,4.3875214E-2,2.479365E-1,-1.6549975E-1,3.1410733E-1],"split_indices":[9,7,2,0,0,3,0,0,0,0,0],"split_type":[0,0,0,0,0,0,0,0,0,0,0],"sum_hessian":[2.256777E3,1.00064667E3,1.2561305E3,9.069719E2,9.367471E1,1.2347847E3,2.1345934E1,1.6201236E2,7.449596E2,1.2109514E3,2.3833178E1],"tree_param":{"num_deleted":"0","num_feature":"13","num_nodes":"11","size_leaf_vector":"1"}},{"base_weights":[2.5145324E-2,-4.3834883E-1,1.843631E-1,-5.3305525E-1,1.9787736E-1,-2.0108192E-1,-4.1142687E-2],"categories":[],"categories_nodes":[],"categories_segments":[],"categories_sizes":[],"default_left":[0,0,0,0,0,0,0],"id":9,"left_children":[1,3,-1,5,-1,-1,-1],"loss_changes":[6.676696E2,1.426177E2,0E0,6.836398E1,0E0,0E0,0E0],"parents":[2147483647,0,0,1,1,3,3],"right_children":[2,4,-1,6,-1,-1,-1],"split_conditions":[8.75E-1,1E0,1.843631E-1,1E0,1.9787736E-1,-2.0108192E-1,-4.1142687E-2],"split_indices":[9,6,0,7,0,0,0],"split_type":[0,0,0,0,0,0,0],"sum_hessian":[2.442055E3,1.3671805E3,1.0748744E3,1.2590883E3,1.0809232E2,9.345082E2,3.2458005E2],"tree_param":{"num_deleted":"0","num_feature":"13","num_nodes":"7","size_leaf_vector":"1"}},{"base_weights":[-2.3699492E-2,-2.6708567E-1,5.54629E-1,-1.6825716E-1,2.5209874E-1,8.52586E-1,-1.6887602E-1,2.4325815E-1,2.9927275E-1],"categories":[],"categories_nodes":[],"categories_segments":[],"categories_sizes":[],"default_left":[0,0,0,0,0,0,0,0,0],"id":10,"left_children":[1,3,5,-1,-1,7,-1,-1,-1],"loss_changes":[2.3364548E2,3.8051715E2,1.6419691E2,0E0,0E0,1.5418701E0,0E0,0E0,0E0],"parents":[2147483647,0,0,1,1,2,2,5,5],"right_children":[2,4,6,-1,-1,8,-1,-1,-1],"split_conditions":[1.4285715E-1,1E0,3E0,-1.6825716E-1,2.5209874E-1,5.714286E-1,-1.6887602E-1,2.4325815E-1,2.9927275E-1],"split_indices":[10,8,12,0,0,10,0,0,0],"split_type":[0,0,0,0,0,0,0,0,0],"sum_hessian":[1.6578665E3,1.1671968E3,4.9066974E2,9.2287335E2,2.443234E2,3.875734E2,1.0309636E2,3.060811E2,8.14923E1],"tree_param":{"num_deleted":"0","num_feature":"13","num_nodes":"9","size_leaf_vector":"1"}},{"base_weights":[-1.13205025E-2,4.789554E-1,-4.5871493E-1,5.814835E-1,-1.7399915E-1,-4.9643585E-1,2.6008406E-1,2.2638384E-1,6.3763924E-2,-1.5888357E-1,2.7871957E-1],"categories":[],"categories_nodes":[],"categories_segments":[],"categories_sizes":[],"default_left":[0,0,0,0,0,0,0,0,0,0,0],"id":11,"left_children":[1,3,5,7,-1,9,-1,-1,-1,-1,-1],"loss_changes":[4.287623E2,1.01600174E2,5.153795E1,5.418637E1,0E0,4.7519913E1,0E0,0E0,0E0,0E0,0E0],"parents":[2147483647,0,0,1,1,2,2,3,3,5,5],"right_children":[2,4,6,8,-1,10,-1,-1,-1,-1,-1],"split_conditions":[5.4545456E-1,1E0,1E0,5E-1,-1.7399915E-1,1E0,2.6008406E-1,2.2638384E-1,6.3763924E-2,-1.5888357E-1,2.7871957E-1],"split_indices":[9,7,5,10,0,2,0,0,0,0,0],"split_type":[0,0,0,0,0,0,0,0,0,0,0],"sum_hessian":[1.9527224E3,9.316767E2,1.0210458E3,8.4984534E2,8.1831406E1,9.9340454E2,2.7641201E1,5.777038E2,2.7214154E2,9.714248E2,2.1979763E1],"tree_param":{"num_deleted":"0","num_feature":"13","num_nodes":"11","size_leaf_vector":"1"}},{"base_weights":[2.2315027E-2,-3.8826463E-1,1.7422947E-1,-4.75538E-1,1.8916543E-1,-8.218747E-3,-1.8313791E-1],"categories":[],"categories_nodes":[],"categories_segments":[],"categories_sizes":[],"default_left":[0,0,0,0,0,0,0],"id":12,"left_children":[1,3,-1,5,-1,-1,-1],"loss_changes":[4.6059808E2,1.0323825E2,0E0,6.449449E1,0E0,0E0,0E0],"parents":[2147483647,0,0,1,1,3,3],"right_children":[2,4,-1,6,-1,-1,-1],"split_conditions":[8.75E-1,1E0,1.7422947E-1,1.5E-1,1.8916543E-1,-8.218747E-3,-1.8313791E-1],"split_indices":[9,6,0,11,0,0,0],"split_type":[0,0,0,0,0,0,0],"sum_hessian":[2.0068342E3,1.1567103E3,8.501239E2,1.0659341E3,9.077632E1,2.4693678E2,8.1899725E2],"tree_param":{"num_deleted":"0","num_feature":"13","num_nodes":"7","size_leaf_vector":"1"}},{"base_weights":[-1.6046654E-2,-1.6107796E-1,2.2354083E-1,3.618047E-1,-1.6032922E-1,1.3902196E-1,-1.6910584E-1],"categories":[],"categories_nodes":[],"categories_segments":[],"categories_sizes":[],"default_left":[0,0,0,0,0,0,0],"id":13,"left_children":[1,-1,3,5,-1,-1,-1],"loss_changes":[1.734683E2,0E0,9.997684E1,7.6035675E1,0E0,0E0,0E0],"parents":[2147483647,0,0,2,2,3,3],"right_children":[2,-1,4,6,-1,-1,-1],"split_conditions":[1.4285715E-1,-1.6107796E-1,9E0,1E0,-1.6032922E-1,1.3902196E-1,-1.6910584E-1],"split_indices":[11,0,0,3,0,0,0],"split_type":[0,0,0,0,0,0,0],"sum_hessian":[1.3880499E3,4.369182E2,9.5113165E2,8.048409E2,1.4629079E2,7.256745E2,7.916637E1],"tree_param":{"num_deleted":"0","num_feature":"13","num_nodes":"7","size_leaf_vector":"1"}},{"base_weights":[-1.372753E-2,4.021422E-1,-4.3441162E-1,4.8758987E-1,-1.6866529E-1,-4.7380123E-1,2.553411E-1,3.5508476E-2,1.8945085E-1,-1.5416403E-1,2.1764162E-1],"categories":[],"categories_nodes":[],"categories_segments":[],"categories_sizes":[],"default_left":[0,0,0,0,0,0,0,0,0,0,0],"id":14,"left_children":[1,3,5,7,-1,9,-1,-1,-1,-1,-1],"loss_changes":[2.8711853E2,6.8281876E1,4.171498E1,4.0238693E1,0E0,3.8451416E1,0E0,0E0,0E0,0E0,0E0],"parents":[2147483647,0,0,1,1,2,2,3,3,5,5],"right_children":[2,4,6,8,-1,10,-1,-1,-1,-1,-1],"split_conditions":[5.4545456E-1,1E0,1E0,5E0,-1.6866529E-1,1E0,2.553411E-1,3.5508476E-2,1.8945085E-1,-1.5416403E-1,2.1764162E-1],"split_indices":[9,7,3,0,0,5,0,0,0,0,0],"split_type":[0,0,0,0,0,0,0,0,0,0,0],"sum_hessian":[1.6391498E3,8.2431366E2,8.1483606E2,7.576739E2,6.663975E1,7.912242E2,2.3611916E1,2.1300446E2,5.446695E2,7.661902E2,2.5034008E1],"tree_param":{"num_deleted":"0","num_feature":"13","num_nodes":"11","size_leaf_vector":"1"}},{"base_weights":[1.8154956E-2,-3.514747E-1,1.6789249E-1,-4.374701E-1,6.2293804E-1,-1.7931372E-1,-1.495554E-2,2.124131E-1,1.67842E-1],"categories":[],"categories_nodes":[],"categories_segments":[],"categories_sizes":[],"default_left":[0,0,0,0,0,0,0,0,0],"id":15,"left_children":[1,3,-1,5,7,-1,-1,-1,-1],"loss_changes":[3.305495E2,8.2520905E1,0E0,5.602893E1,3.603363E-2,0E0,0E0,0E0,0E0],"parents":[2147483647,0,0,1,1,3,3,4,4],"right_children":[2,4,-1,6,8,-1,-1,-1,-1],"split_conditions":[8.75E-1,1E0,1.6789249E-1,1E0,5.4545456E-1,-1.7931372E-1,-1.495554E-2,2.124131E-1,1.67842E-1],"split_indices":[9,6,0,7,9,0,0,0,0],"split_type":[0,0,0,0,0,0,0,0,0],"sum_hessian":[1.64953E3,9.805427E2,6.6898724E2,9.0153046E2,7.901225E1,6.3746075E2,2.6406973E2,2.9413082E1,4.9599167E1],"tree_param":{"num_deleted":"0","num_feature":"13","num_nodes":"9","size_leaf_vector":"1"}},{"base_weights":[-1.543309E-2,-2.4329755E-1,4.5823994E-1,-1.6329722E-1,2.0295528E-1,6.930481E-1,-1.6407266E-1,1.9644688E-1,2.3990628E-1],"categories":[],"categories_nodes":[],"categories_segments":[],"categories_sizes":[],"default_left":[0,0,0,0,0,0,0,0,0],"id":16,"left_children":[1,3,5,-1,-1,7,-1,-1,-1],"loss_changes":[1.2804343E2,2.2214247E2,9.1325134E1,0E0,0E0,7.5146484E-1,0E0,0E0,0E0],"parents":[2147483647,0,0,1,1,2,2,5,5],"right_children":[2,4,6,-1,-1,8,-1,-1,-1],"split_conditions":[1.4285715E-1,1E0,3E0,-1.6329722E-1,2.0295528E-1,5.714286E-1,-1.6407266E-1,1.9644688E-1,2.3990628E-1],"split_indices":[10,8,12,0,0,10,0,0,0],"split_type":[0,0,0,0,0,0,0,0,0],"sum_hessian":[1.1842876E3,7.999508E2,3.8433682E2,6.030122E2,1.9693866E2,3.1180743E2,7.2529396E1,2.3478761E2,7.7019806E1],"tree_param":{"num_deleted":"0","num_feature":"13","num_nodes":"9","size_leaf_vector":"1"}},{"base_weights":[-8.456174E-3,3.431066E-1,-4.2130795E-1,4.297192E-1,-1.6578032E-1,-4.5923376E-1,2.3642676E-1,1.7851162E-1,2.8198129E-2,-1.4978601E-1,1.9927987E-1],"categories":[],"categories_nodes":[],"categories_segments":[],"categories_sizes":[],"default_left":[0,0,0,0,0,0,0,0,0,0,0],"id":17,"left_children":[1,3,5,7,-1,9,-1,-1,-1,-1,-1],"loss_changes":[2.0049666E2,5.8117683E1,2.950138E1,3.773291E1,0E0,2.8078918E1,0E0,0E0,0E0,0E0,0E0],"parents":[2147483647,0,0,1,1,2,2,3,3,5,5],"right_children":[2,4,6,8,-1,10,-1,-1,-1,-1,-1],"split_conditions":[5.833333E-1,1E0,1E0,5E-1,-1.6578032E-1,1E0,2.3642676E-1,1.7851162E-1,2.8198129E-2,-1.4978601E-1,1.9927987E-1],"split_indices":[9,7,2,10,0,5,0,0,0,0,0],"split_type":[0,0,0,0,0,0,0,0,0,0,0],"sum_hessian":[1.3793743E3,7.4507587E2,6.3429834E2,6.7985583E2,6.522004E1,6.1561346E2,1.8684916E1,4.550202E2,2.2483563E2,5.949587E2,2.0654747E1],"tree_param":{"num_deleted":"0","num_feature":"13","num_nodes":"11","size_leaf_vector":"1"}},{"base_weights":[1.5130721E-2,-3.1674922E-1,1.6283822E-1,-3.9993322E-1,1.8242146E-1,5.377395E-3,-1.6705799E-1],"categories":[],"categories_nodes":[],"categories_segments":[],"categories_sizes":[],"default_left":[0,0,0,0,0,0,0],"id":18,"left_children":[1,3,-1,5,-1,-1,-1],"loss_changes":[2.3364687E2,6.3255295E1,0E0,4.9326843E1,0E0,0E0,0E0],"parents":[2147483647,0,0,1,1,3,3],"right_children":[2,4,-1,6,-1,-1,-1],"split_conditions":[8.75E-1,1E0,1.6283822E-1,1.5E-1,1.8242146E-1,5.377395E-3,-1.6705799E-1],"split_indices":[9,6,0,11,0,0,0],"split_type":[0,0,0,0,0,0,0],"sum_hessian":[1.3322216E3,8.180803E2,5.141413E2,7.510902E2,6.699008E1,2.0530325E2,5.45787E2],"tree_param":{"num_deleted":"0","num_feature":"13","num_nodes":"7","size_leaf_vector":"1"}},{"base_weights":[-7.0379195E-3,-1.5711431E-1,1.8836696E-1,2.913723E-1,-1.5506053E-1,1.1387149E-1,-1.6340005E-1],"categories":[],"categories_nodes":[],"categories_segments":[],"categories_sizes":[],"default_left":[0,0,0,0,0,0,0],"id":19,"left_children":[1,-1,3,5,-1,-1,-1],"loss_changes":[9.811279E1,0E0,5.1374275E1,4.562322E1,0E0,0E0,0E0],"parents":[2147483647,0,0,2,2,3,3],"right_children":[2,-1,4,6,-1,-1,-1],"split_conditions":[1.4285715E-1,-1.5711431E-1,9E0,1E0,-1.5506053E-1,1.1387149E-1,-1.6340005E-1],"split_indices":[11,0,0,5,0,0,0],"split_type":[0,0,0,0,0,0,0],"sum_hessian":[9.698111E2,2.6566843E2,7.0414264E2,6.149161E2,8.9226616E1,5.56729E2,5.8187065E1],"tree_param":{"num_deleted":"0","num_feature":"13","num_nodes":"7","size_leaf_vector":"1"}},{"base_weights":[-1.1746387E-2,3.6667004E-1,-3.3791757E-1,-6.1605908E-2,5.092109E-1,-4.0067065E-1,2.0590323E-1,1.3282648E-1,-1.921839E-1,1.689896E-1,-1.9304045E-1,-1.396555E-1,2.0865318E-1],"categories":[],"categories_nodes":[],"categories_segments":[],"categories_sizes":[],"default_left":[0,0,0,0,0,0,0,0,0,0,0,0,0],"id":20,"left_children":[1,3,5,7,9,11,-1,-1,-1,-1,-1,-1,-1],"loss_changes":[1.4029878E2,3.2154976E1,3.9512917E1,3.8917427E1,2.4983948E1,4.125817E1,0E0,0E0,0E0,0E0,0E0,0E0,0E0],"parents":[2147483647,0,0,1,1,2,2,3,3,4,4,5,5],"right_children":[2,4,6,8,10,12,-1,-1,-1,-1,-1,-1,-1],"split_conditions":[5E-1,4E0,1E0,3.75E-1,1E0,1E0,2.0590323E-1,1.3282648E-1,-1.921839E-1,1.689896E-1,-1.9304045E-1,-1.396555E-1,2.0865318E-1],"split_indices":[9,0,3,10,6,2,0,0,0,0,0,0,0],"split_type":[0,0,0,0,0,0,0,0,0,0,0,0,0],"sum_hessian":[1.1346764E3,5.252125E2,6.0946387E2,1.3129462E2,3.939179E2,5.748534E2,3.4610527E1,7.029631E1,6.099831E1,3.7675076E2,1.7167164E1,5.4328894E2,3.1564436E1],"tree_param":{"num_deleted":"0","num_feature":"13","num_nodes":"13","size_leaf_vector":"1"}},{"base_weights":[1.4565289E-2,-2.8824055E-1,1.5973715E-1,-3.6625662E-1,1.744013E-1,-1.6767156E-1,5.6645228E-3],"categories":[],"categories_nodes":[],"categories_segments":[],"categories_sizes":[],"default_left":[0,0,0,0,0,0,0],"id":21,"left_children":[1,3,-1,5,-1,-1,-1],"loss_changes":[1.7036447E2,4.672267E1,0E0,4.6734932E1,0E0,0E0,0E0],"parents":[2147483647,0,0,1,1,3,3],"right_children":[2,4,-1,6,-1,-1,-1],"split_conditions":[8.75E-1,1E0,1.5973715E-1,1E0,1.744013E-1,-1.6767156E-1,5.6645228E-3],"split_indices":[9,6,0,7,0,0,0],"split_type":[0,0,0,0,0,0,0],"sum_hessian":[1.0843861E3,6.845693E2,3.998169E2,6.287394E2,5.5829895E1,4.1880124E2,2.0993814E2],"tree_param":{"num_deleted":"0","num_feature":"13","num_nodes":"7","size_leaf_vector":"1"}},{"base_weights":[-1.2064552E-2,-1.5568751E-1,1.598963E-1,1.5417759E-2,1.8143883E-1,-1.650877E-1,1.186948E-1],"categories":[],"categories_nodes":[],"categories_segments":[],"categories_sizes":[],"default_left":[0,0,0,0,0,0,0],"id":22,"left_children":[1,-1,3,5,-1,-1,-1],"loss_changes":[7.119774E1,0E0,3.9197678E1,9.9477875E1,0E0,0E0,0E0],"parents":[2147483647,0,0,2,2,3,3],"right_children":[2,-1,4,6,-1,-1,-1],"split_conditions":[1.4285715E-1,-1.5568751E-1,1E0,1.4285715E-1,1.8143883E-1,-1.650877E-1,1.186948E-1],"split_indices":[11,0,8,10,0,0,0],"split_type":[0,0,0,0,0,0,0],"sum_hessian":[8.148554E2,2.0590009E2,6.089553E2,4.6045877E2,1.4849655E2,1.8490665E2,2.7555212E2],"tree_param":{"num_deleted":"0","num_feature":"13","num_nodes":"7","size_leaf_vector":"1"}},{"base_weights":[-6.331958E-3,2.3052238E-1,-4.6281445E-1,3.4140837E-1,-1.6401827E-1,-4.8484585E-1,1.7380442E-1,1.55373E-1,8.060939E-3,-1.5152107E-1,1.6099875E-1],"categories":[],"categories_nodes":[],"categories_segments":[],"categories_sizes":[],"default_left":[0,0,0,0,0,0,0,0,0,0,0],"id":23,"left_children":[1,3,5,7,-1,9,-1,-1,-1,-1,-1],"loss_changes":[1.01979805E2,5.370941E1,7.6789474E0,3.0192322E1,0E0,6.8011475E0,0E0,0E0,0E0,0E0,0E0],"parents":[2147483647,0,0,1,1,2,2,3,3,5,5],"right_children":[2,4,6,8,-1,10,-1,-1,-1,-1,-1],"split_conditions":[6.875E-1,1E0,1E0,3.3333334E-1,-1.6401827E-1,1E0,1.7380442E-1,1.55373E-1,8.060939E-3,-1.5152107E-1,1.6099875E-1],"split_indices":[9,7,2,10,0,5,0,0,0,0,0],"split_type":[0,0,0,0,0,0,0,0,0,0,0],"sum_hessian":[9.41224E2,6.2001355E2,3.2121045E2,5.4309406E2,7.691952E1,3.150843E2,6.1261406E0,3.474678E2,1.9562625E2,3.0946295E2,5.62134E0],"tree_param":{"num_deleted":"0","num_feature":"13","num_nodes":"11","size_leaf_vector":"1"}},{"base_weights":[9.43418E-3,-2.619844E-1,1.5689908E-1,-3.3956015E-1,1.7190298E-1,2.016882E-2,-1.5723534E-1],"categories":[],"categories_nodes":[],"categories_segments":[],"categories_sizes":[],"default_left":[0,0,0,0,0,0,0],"id":24,"left_children":[1,3,-1,5,-1,-1,-1],"loss_changes":[1.2224599E2,3.736202E1,0E0,3.949834E1,0E0,0E0,0E0],"parents":[2147483647,0,0,1,1,3,3],"right_children":[2,4,-1,6,-1,-1,-1],"split_conditions":[8.75E-1,1E0,1.5689908E-1,1.5E-1,1.7190298E-1,2.016882E-2,-1.5723534E-1],"split_indices":[9,6,0,11,0,0,0],"split_type":[0,0,0,0,0,0,0],"sum_hessian":[8.7502094E2,5.7279034E2,3.022306E2,5.246415E2,4.8148853E1,1.6393736E2,3.6070413E2],"tree_param":{"num_deleted":"0","num_feature":"13","num_nodes":"7","size_leaf_vector":"1"}},{"base_weights":[-3.3924868E-3,-1.5460457E-1,1.5506558E-1,2.4188972E-1,-1.643132E-1,-2.879708E-3,1.7701453E-1],"categories":[],"categories_nodes":[],"categories_segments":[],"categories_sizes":[],"default_left":[0,0,0,0,0,0,0],"id":25,"left_children":[1,-1,3,5,-1,-1,-1],"loss_changes":[5.550056E1,0E0,3.2011963E1,4.078183E1,0E0,0E0,0E0],"parents":[2147483647,0,0,2,2,3,3],"right_children":[2,-1,4,6,-1,-1,-1],"split_conditions":[1.4285715E-1,-1.5460457E-1,3E0,1.25E-1,-1.643132E-1,-2.879708E-3,1.7701453E-1],"split_indices":[11,0,12,10,0,0,0],"split_type":[0,0,0,0,0,0,0],"sum_hessian":[6.821633E2,1.6070274E2,5.2146063E2,4.6470468E2,5.6755905E1,2.703748E2,1.9432993E2],"tree_param":{"num_deleted":"0","num_feature":"13","num_nodes":"7","size_leaf_vector":"1"}},{"base_weights":[-7.6005664E-3,3.0784535E-1,-3.057109E-1,-8.811138E-2,4.5794508E-1,-3.7056282E-1,1.8090466E-1,1.0805995E-1,-1.7548794E-1,1.5487075E-1,-1.7518532E-1,-1.3140453E-1,1.8004209E-1],"categories":[],"categories_nodes":[],"categories_segments":[],"categories_sizes":[],"default_left":[0,0,0,0,0,0,0,0,0,0,0,0,0],"id":26,"left_children":[1,3,5,7,9,11,-1,-1,-1,-1,-1,-1,-1],"loss_changes":[7.367271E1,2.2664303E1,2.3959984E1,2.370452E1,1.707515E1,2.4918816E1,0E0,0E0,0E0,0E0,0E0,0E0,0E0],"parents":[2147483647,0,0,1,1,2,2,3,3,4,4,5,5],"right_children":[2,4,6,8,10,12,-1,-1,-1,-1,-1,-1,-1],"split_conditions":[5E-1,4E0,1E0,3.75E-1,1E0,1E0,1.8090466E-1,1.0805995E-1,-1.7548794E-1,1.5487075E-1,-1.7518532E-1,-1.3140453E-1,1.8004209E-1],"split_indices":[9,0,3,10,6,2,0,0,0,0,0,0,0],"split_type":[0,0,0,0,0,0,0,0,0,0,0,0,0],"sum_hessian":[7.814372E2,3.7966324E2,4.0177393E2,1.0447515E2,2.751881E2,3.7556378E2,2.621016E1,5.506473E1,4.9410423E1,2.6108572E2,1.4102383E1,3.516753E2,2.3888468E1],"tree_param":{"num_deleted":"0","num_feature":"13","num_nodes":"13","size_leaf_vector":"1"}},{"base_weights":[5.873453E-3,-2.4222611E-1,1.5507677E-1,-3.1421515E-1,1.6515474E-1,-1.6112244E-1,1.152612E-2],"categories":[],"categories_nodes":[],"categories_segments":[],"categories_sizes":[],"default_left":[0,0,0,0,0,0,0],"id":27,"left_children":[1,3,-1,5,-1,-1,-1],"loss_changes":[9.093114E1,2.7726215E1,0E0,3.485492E1,0E0,0E0,0E0],"parents":[2147483647,0,0,1,1,3,3],"right_children":[2,4,-1,6,-1,-1,-1],"split_conditions":[8.75E-1,1E0,1.5507677E-1,1E0,1.6515474E-1,-1.6112244E-1,1.152612E-2],"split_indices":[9,6,0,7,0,0,0],"split_type":[0,0,0,0,0,0,0],"sum_hessian":[7.151856E2,4.8180783E2,2.3337776E2,4.4225058E2,3.955723E1,2.7066922E2,1.7158138E2],"tree_param":{"num_deleted":"0","num_feature":"13","num_nodes":"7","size_leaf_vector":"1"}},{"base_weights":[-8.06116E-3,-1.5966022E-1,1.7184523E-1,-1.5873103E-1,3.183074E-1,1.6879667E-1,-1.6279486E-1],"categories":[],"categories_nodes":[],"categories_segments":[],"categories_sizes":[],"default_left":[0,0,0,0,0,0,0],"id":28,"left_children":[1,3,-1,-1,5,-1,-1],"loss_changes":[5.037604E1,8.02697E1,0E0,0E0,4.20409E1,0E0,0E0],"parents":[2147483647,0,0,1,1,4,4],"right_children":[2,4,-1,-1,6,-1,-1],"split_conditions":[1E0,1.4285715E-1,1.7184523E-1,-1.5873103E-1,3E0,1.6879667E-1,-1.6279486E-1],"split_indices":[8,10,0,0,12,0,0],"split_type":[0,0,0,0,0,0,0],"sum_hessian":[5.7002216E2,4.526212E2,1.17401E2,2.5523291E2,1.9738828E2,1.5402182E2,4.3366455E1],"tree_param":{"num_deleted":"0","num_feature":"13","num_nodes":"7","size_leaf_vector":"1"}},{"base_weights":[6.117393E-4,1.929039E-1,-4.3933323E-1,3.0974644E-1,-1.6114992E-1,-4.6485233E-1,1.4868616E-1,1.4167066E-1,1.2129538E-2,-1.4710774E-1,1.4777268E-1],"categories":[],"categories_nodes":[],"categories_segments":[],"categories_sizes":[],"default_left":[0,0,0,0,0,0,0,0,0,0,0],"id":29,"left_children":[1,3,5,7,-1,9,-1,-1,-1,-1,-1],"loss_changes":[5.494975E1,3.8722004E1,4.943886E0,1.705896E1,0E0,4.950432E0,0E0,0E0,0E0,0E0,0E0],"parents":[2147483647,0,0,1,1,2,2,3,3,5,5],"right_children":[2,4,6,8,-1,10,-1,-1,-1,-1,-1],"split_conditions":[6.875E-1,1E0,1E0,3.3333334E-1,-1.6114992E-1,1E0,1.4868616E-1,1.4167066E-1,1.2129538E-2,-1.4710774E-1,1.4777268E-1],"split_indices":[9,7,5,10,0,2,0,0,0,0,0],"split_type":[0,0,0,0,0,0,0,0,0,0,0],"sum_hessian":[6.4753796E2,4.5098288E2,1.965551E2,3.8926025E2,6.17226E1,1.9182222E2,4.732883E0,2.4231052E2,1.4694975E2,1.8731969E2,4.5025353E0],"tree_param":{"num_deleted":"0","num_feature":"13","num_nodes":"11","size_leaf_vector":"1"}},{"base_weights":[4.010076E-3,-2.1800528E-1,1.5335342E-1,-2.908766E-1,1.634232E-1,3.1127028E-2,-1.5052876E-1],"categories":[],"categories_nodes":[],"categories_segments":[],"categories_sizes":[],"default_left":[0,0,0,0,0,0,0],"id":30,"left_children":[1,3,-1,5,-1,-1,-1],"loss_changes":[6.508757E1,2.2506027E1,0E0,3.0648916E1,0E0,0E0,0E0],"parents":[2147483647,0,0,1,1,3,3],"right_children":[2,4,-1,6,-1,-1,-1],"split_conditions":[8.75E-1,1E0,1.5335342E-1,1.5E-1,1.634232E-1,3.1127028E-2,-1.5052876E-1],"split_indices":[9,6,0,11,0,0,0],"split_type":[0,0,0,0,0,0,0],"sum_hessian":[5.760574E2,4.0106104E2,1.7499635E2,3.6665073E2,3.441032E1,1.2787141E2,2.3877931E2],"tree_param":{"num_deleted":"0","num_feature":"13","num_nodes":"7","size_leaf_vector":"1"}},{"base_weights":[1.8485034E-3,-1.532471E-1,1.672892E-1,-1.5752709E-1,2.9993382E-1,1.6447517E-1,-1.6095209E-1],"categories":[],"categories_nodes":[],"categories_segments":[],"categories_sizes":[],"default_left":[0,0,0,0,0,0,0],"id":31,"left_children":[1,3,-1,-1,5,-1,-1],"loss_changes":[4.0107975E1,6.14601E1,0E0,0E0,3.4481407E1,0E0,0E0],"parents":[2147483647,0,0,1,1,4,4],"right_children":[2,4,-1,-1,6,-1,-1],"split_conditions":[1E0,1.4285715E-1,1.672892E-1,-1.5752709E-1,3E0,1.6447517E-1,-1.6095209E-1],"split_indices":[8,10,0,0,12,0,0],"split_type":[0,0,0,0,0,0,0],"sum_hessian":[4.633018E2,3.6278726E2,1.0051453E2,1.9918976E2,1.6359749E2,1.2641332E2,3.7184166E1],"tree_param":{"num_deleted":"0","num_feature":"13","num_nodes":"7","size_leaf_vector":"1"}},{"base_weights":[-6.0074236E-3,1.6627574E-1,-4.2929965E-1,2.7537057E-1,-1.5879485E-1,-4.565713E-1,1.5257055E-1,9.901878E-2,-1.6053638E-1,-1.450619E-1,1.3630354E-1],"categories":[],"categories_nodes":[],"categories_segments":[],"categories_sizes":[],"default_left":[0,0,0,0,0,0,0,0,0,0,0],"id":32,"left_children":[1,3,5,7,-1,9,-1,-1,-1,-1,-1],"loss_changes":[3.8580357E1,2.8680534E1,4.14629E0,1.4614189E1,0E0,3.8857403E0,0E0,0E0,0E0,0E0,0E0],"parents":[2147483647,0,0,1,1,2,2,3,3,5,5],"right_children":[2,4,6,8,-1,10,-1,-1,-1,-1,-1],"split_conditions":[6.875E-1,1E0,1E0,1E0,-1.5879485E-1,1E0,1.5257055E-1,9.901878E-2,-1.6053638E-1,-1.450619E-1,1.3630354E-1],"split_indices":[9,7,3,6,0,5,0,0,0,0,0],"split_type":[0,0,0,0,0,0,0,0,0,0,0],"sum_hessian":[5.270546E2,3.750241E2,1.5203049E2,3.247027E2,5.032142E1,1.4823329E2,3.797197E0,3.0473212E2,1.9970573E1,1.4442662E2,3.806678E0],"tree_param":{"num_deleted":"0","num_feature":"13","num_nodes":"11","size_leaf_vector":"1"}},{"base_weights":[-3.7268642E-3,-2.0696461E-1,1.5196411E-1,-3.8595453E-1,7.973468E-2,-1.5736946E-1,1.575151E-1,1.8333709E-1,-1.5739778E-1],"categories":[],"categories_nodes":[],"categories_segments":[],"categories_sizes":[],"default_left":[0,0,0,0,0,0,0,0,0],"id":33,"left_children":[1,3,-1,5,7,-1,-1,-1,-1],"loss_changes":[4.8055515E1,1.7035748E1,0E0,2.605833E1,4.1492695E1,0E0,0E0,0E0,0E0],"parents":[2147483647,0,0,1,1,3,3,4,4],"right_children":[2,4,-1,6,8,-1,-1,-1,-1],"split_conditions":[8.75E-1,1E0,1.5196411E-1,1E0,1E0,-1.5736946E-1,1.575151E-1,1.8333709E-1,-1.5739778E-1],"split_indices":[9,7,0,6,8,0,0,0,0],"split_type":[0,0,0,0,0,0,0,0,0],"sum_hessian":[4.6136728E2,3.303758E2,1.3099147E2,2.0318112E2,1.2719469E2,1.7671754E2,2.6463568E1,6.7679276E1,5.9515408E1],"tree_param":{"num_deleted":"0","num_feature":"13","num_nodes":"9","size_leaf_vector":"1"}},{"base_weights":[7.5792684E-3,-1.3346604E-1,1.6169435E-1,-1.5679683E-1,3.070012E-1,1.6216403E-1,-1.5805939E-1],"categories":[],"categories_nodes":[],"categories_segments":[],"categories_sizes":[],"default_left":[0,0,0,0,0,0,0],"id":34,"left_children":[1,3,-1,-1,5,-1,-1],"loss_changes":[2.8135563E1,5.1020554E1,0E0,0E0,2.7511429E1,0E0,0E0],"parents":[2147483647,0,0,1,1,4,4],"right_children":[2,4,-1,-1,6,-1,-1],"split_conditions":[1E0,1.4285715E-1,1.6169435E-1,-1.5679683E-1,3E0,1.6216403E-1,-1.5805939E-1],"split_indices":[8,10,0,0,12,0,0],"split_type":[0,0,0,0,0,0,0],"sum_hessian":[3.7342264E2,2.9568927E2,7.773335E1,1.5688316E2,1.3880612E2,1.0871066E2,3.009546E1],"tree_param":{"num_deleted":"0","num_feature":"13","num_nodes":"7","size_leaf_vector":"1"}},{"base_weights":[-2.5420825E-3,-1.2466704E-1,1.6377538E-1,-2.3727542E-1,1.6714038E-1,-1.08543195E-1,1.5862343E-1],"categories":[],"categories_nodes":[],"categories_segments":[],"categories_sizes":[],"default_left":[0,0,0,0,0,0,0],"id":35,"left_children":[1,3,-1,5,-1,-1,-1],"loss_changes":[2.9438826E1,2.7729748E1,0E0,2.9688011E1,0E0,0E0,0E0],"parents":[2147483647,0,0,1,1,3,3],"right_children":[2,4,-1,6,-1,-1,-1],"split_conditions":[1E0,3E0,1.6377538E-1,1E0,1.6714038E-1,-1.08543195E-1,1.5862343E-1],"split_indices":[2,12,0,3,0,0,0],"split_type":[0,0,0,0,0,0,0],"sum_hessian":[4.3749628E2,3.5845273E2,7.904356E1,3.0820126E2,5.025145E1,2.655563E2,4.2644955E1],"tree_param":{"num_deleted":"0","num_feature":"13","num_nodes":"7","size_leaf_vector":"1"}},{"base_weights":[-2.9203752E-3,-1.9971411E-1,1.508389E-1,-3.7999064E-1,8.759722E-2,-1.5512793E-1,1.530473E-1,1.746406E-1,-1.5391728E-1],"categories":[],"categories_nodes":[],"categories_segments":[],"categories_sizes":[],"default_left":[0,0,0,0,0,0,0,0,0],"id":36,"left_children":[1,3,-1,5,7,-1,-1,-1,-1],"loss_changes":[3.5813713E1,1.3450408E1,0E0,1.9711819E1,3.020669E1,0E0,0E0,0E0,0E0],"parents":[2147483647,0,0,1,1,3,3,4,4],"right_children":[2,4,-1,6,8,-1,-1,-1,-1],"split_conditions":[8.75E-1,1E0,1.508389E-1,1E0,1E0,-1.5512793E-1,1.530473E-1,1.746406E-1,-1.5391728E-1],"split_indices":[9,7,0,6,8,0,0,0,0],"split_type":[0,0,0,0,0,0,0,0,0],"sum_hessian":[3.578487E2,2.5804037E2,9.980831E1,1.583558E2,9.9684586E1,1.3758394E2,2.0771858E1,5.4688583E1,4.4996006E1],"tree_param":{"num_deleted":"0","num_feature":"13","num_nodes":"9","size_leaf_vector":"1"}},{"base_weights":[4.0369285E-3,-1.3267139E-1,1.5750913E-1,-1.5516755E-1,3.0305222E-1,1.5783018E-1,-1.5432942E-1],"categories":[],"categories_nodes":[],"categories_segments":[],"categories_sizes":[],"default_left":[0,0,0,0,0,0,0],"id":37,"left_children":[1,3,-1,-1,5,-1,-1],"loss_changes":[2.0846489E1,3.900945E1,0E0,0E0,2.0206707E1,0E0,0E0],"parents":[2147483647,0,0,1,1,4,4],"right_children":[2,4,-1,-1,6,-1,-1],"split_conditions":[1E0,1.4285715E-1,1.5750913E-1,-1.5516755E-1,3E0,1.5783018E-1,-1.5432942E-1],"split_indices":[8,10,0,0,12,0,0],"split_type":[0,0,0,0,0,0,0],"sum_hessian":[2.907105E2,2.3087456E2,5.9835964E1,1.22539024E2,1.08335526E2,8.539276E1,2.2942764E1],"tree_param":{"num_deleted":"0","num_feature":"13","num_nodes":"7","size_leaf_vector":"1"}},{"base_weights":[-3.7152474E-4,1.4850189E-1,-4.0612364E-1,2.4701892E-1,-1.5332463E-1,-4.395776E-1,1.2786943E-1,1.2945065E-1,-7.8005795E-3,-1.4177619E-1,1.2351346E-1],"categories":[],"categories_nodes":[],"categories_segments":[],"categories_sizes":[],"default_left":[0,0,0,0,0,0,0,0,0,0,0],"id":38,"left_children":[1,3,5,7,-1,9,-1,-1,-1,-1,-1],"loss_changes":[2.1141573E1,1.676439E1,2.8033285E0,1.1265853E1,0E0,2.746338E0,0E0,0E0,0E0,0E0,0E0],"parents":[2147483647,0,0,1,1,2,2,3,3,5,5],"right_children":[2,4,6,8,-1,10,-1,-1,-1,-1,-1],"split_conditions":[6.875E-1,1E0,1E0,3.3333334E-1,-1.5332463E-1,1E0,1.2786943E-1,1.2945065E-1,-7.8005795E-3,-1.4177619E-1,1.2351346E-1],"split_indices":[9,7,2,10,0,5,0,0,0,0,0],"split_type":[0,0,0,0,0,0,0,0,0,0,0],"sum_hessian":[3.4799463E2,2.5504921E2,9.294541E1,2.2244916E2,3.2600044E1,8.980775E1,3.1376624E0,1.3240271E2,9.0046455E1,8.68836E1,2.9241521E0],"tree_param":{"num_deleted":"0","num_feature":"13","num_nodes":"11","size_leaf_vector":"1"}},{"base_weights":[-5.1078917E-3,-1.915512E-1,1.4973772E-1,-2.633215E-1,1.5178807E-1,-1.5350081E-1,2.6640201E-2],"categories":[],"categories_nodes":[],"categories_segments":[],"categories_sizes":[],"default_left":[0,0,0,0,0,0,0],"id":39,"left_children":[1,3,-1,5,-1,-1,-1],"loss_changes":[2.6343657E1,1.0373432E1,0E0,1.6322245E1,0E0,0E0,0E0],"parents":[2147483647,0,0,1,1,3,3],"right_children":[2,4,-1,6,-1,-1,-1],"split_conditions":[8.75E-1,1E0,1.4973772E-1,1E0,1.5178807E-1,-1.5350081E-1,2.6640201E-2],"split_indices":[9,6,0,7,0,0,0],"split_type":[0,0,0,0,0,0,0],"sum_hessian":[2.7820193E2,2.0355605E2,7.464591E1,1.8512964E2,1.8426397E1,1.0829634E2,7.68333E1],"tree_param":{"num_deleted":"0","num_feature":"13","num_nodes":"7","size_leaf_vector":"1"}},{"base_weights":[6.6135856E-3,-1.20955676E-1,1.5403868E-1,-1.5356772E-1,2.861628E-1,1.5508872E-1,-1.5256563E-1],"categories":[],"categories_nodes":[],"categories_segments":[],"categories_sizes":[],"default_left":[0,0,0,0,0,0,0],"id":40,"left_children":[1,3,-1,-1,5,-1,-1],"loss_changes":[1.4913151E1,2.9480677E1,0E0,0E0,1.69408E1,0E0,0E0],"parents":[2147483647,0,0,1,1,4,4],"right_children":[2,4,-1,-1,6,-1,-1],"split_conditions":[1E0,1.4285715E-1,1.5403868E-1,-1.5356772E-1,3E0,1.5508872E-1,-1.5256563E-1],"split_indices":[8,10,0,0,12,0,0],"split_type":[0,0,0,0,0,0,0],"sum_hessian":[2.2868503E2,1.8330913E2,4.5375908E1,9.338171E1,8.992742E1,6.9959435E1,1.9967989E1],"tree_param":{"num_deleted":"0","num_feature":"13","num_nodes":"7","size_leaf_vector":"1"}},{"base_weights":[-3.3047338E-4,-1.0873879E-1,1.5600352E-1,-2.2117606E-1,1.6004454E-1,-1.0786263E-1,1.5351719E-1],"categories":[],"categories_nodes":[],"categories_segments":[],"categories_sizes":[],"default_left":[0,0,0,0,0,0,0],"id":41,"left_children":[1,3,-1,5,-1,-1,-1],"loss_changes":[1.5904661E1,1.696696E1,0E0,2.0392315E1,0E0,0E0,0E0],"parents":[2147483647,0,0,1,1,3,3],"right_children":[2,4,-1,6,-1,-1,-1],"split_conditions":[1E0,3E0,1.5600352E-1,1E0,1.6004454E-1,-1.0786263E-1,1.5351719E-1],"split_indices":[2,12,0,5,0,0,0],"split_type":[0,0,0,0,0,0,0],"sum_hessian":[2.7994803E2,2.3233441E2,4.7613625E1,1.9827658E2,3.4057823E1,1.6721675E2,3.1059837E1],"tree_param":{"num_deleted":"0","num_feature":"13","num_nodes":"7","size_leaf_vector":"1"}},{"base_weights":[-4.530832E-3,-1.8811382E-1,4.6617E-1,-2.5577977E-1,1.4747442E-1,1.4981617E-1,-1.03717834E-1,-1.5191707E-1,1.8561767E-2],"categories":[],"categories_nodes":[],"categories_segments":[],"categories_sizes":[],"default_left":[0,0,0,0,0,0,0,0,0],"id":42,"left_children":[1,3,5,7,-1,-1,-1,-1,-1],"loss_changes":[1.9503382E1,7.5927806E0,1.8806238E0,1.1838058E1,0E0,0E0,0E0,0E0,0E0],"parents":[2147483647,0,0,1,1,2,2,3,3],"right_children":[2,4,6,8,-1,-1,-1,-1,-1],"split_conditions":[8.4615386E-1,1E0,1E0,1E0,1.4747442E-1,1.4981617E-1,-1.03717834E-1,-1.5191707E-1,1.8561767E-2],"split_indices":[9,6,4,7,0,0,0,0,0],"split_type":[0,0,0,0,0,0,0,0,0],"sum_hessian":[2.2368567E2,1.6135448E2,6.23312E1,1.4731268E2,1.4041791E1,6.0251057E1,2.0801446E0,8.2013954E1,6.529872E1],"tree_param":{"num_deleted":"0","num_feature":"13","num_nodes":"9","size_leaf_vector":"1"}},{"base_weights":[1.0977103E-2,-1.2633142E-1,1.5243457E-1,-1.5267333E-1,2.8375664E-1,1.5168025E-1,-1.485456E-1],"categories":[],"categories_nodes":[],"categories_segments":[],"categories_sizes":[],"default_left":[0,0,0,0,0,0,0],"id":43,"left_children":[1,3,-1,-1,5,-1,-1],"loss_changes":[1.2674974E1,2.2981697E1,0E0,0E0,1.2501068E1,0E0,0E0],"parents":[2147483647,0,0,1,1,4,4],"right_children":[2,4,-1,-1,6,-1,-1],"split_conditions":[1E0,1.4285715E-1,1.5243457E-1,-1.5267333E-1,3E0,1.5168025E-1,-1.485456E-1],"split_indices":[8,10,0,0,12,0,0],"split_type":[0,0,0,0,0,0,0],"sum_hessian":[1.837428E2,1.4456117E2,3.9181614E1,7.4664314E1,6.9896866E1,5.467542E1,1.5221446E1],"tree_param":{"num_deleted":"0","num_feature":"13","num_nodes":"7","size_leaf_vector":"1"}},{"base_weights":[-4.490392E-3,-1.05461225E-1,1.5296072E-1,-2.0843914E-1,1.5571555E-1,-1.0135668E-1,1.5112725E-1],"categories":[],"categories_nodes":[],"categories_segments":[],"categories_sizes":[],"default_left":[0,0,0,0,0,0,0],"id":44,"left_children":[1,3,-1,5,-1,-1,-1],"loss_changes":[1.1736263E1,1.2254002E1,0E0,1.5179178E1,0E0,0E0,0E0],"parents":[2147483647,0,0,1,1,3,3],"right_children":[2,4,-1,6,-1,-1,-1],"split_conditions":[1E0,3E0,1.5296072E-1,1E0,1.5571555E-1,-1.0135668E-1,1.5112725E-1],"split_indices":[2,12,0,3,0,0,0],"split_type":[0,0,0,0,0,0,0],"sum_hessian":[2.2394319E2,1.878604E2,3.608279E1,1.6184029E2,2.6020115E1,1.3739859E2,2.4441696E1],"tree_param":{"num_deleted":"0","num_feature":"13","num_nodes":"7","size_leaf_vector":"1"}},{"base_weights":[-3.746681E-3,-1.6313796E-1,1.4760523E-1,1.289418E-1,-3.4024096E-1,-1.3931169E-1,1.4627364E-1,-1.3926108E-1,1.431595E-1],"categories":[],"categories_nodes":[],"categories_segments":[],"categories_sizes":[],"default_left":[0,0,0,0,0,0,0,0,0],"id":45,"left_children":[1,3,-1,5,7,-1,-1,-1,-1],"loss_changes":[1.4450425E1,7.2010813E0,0E0,1.1493947E1,8.977515E0,0E0,0E0,0E0,0E0],"parents":[2147483647,0,0,1,1,3,3,4,4],"right_children":[2,4,-1,6,8,-1,-1,-1,-1],"split_conditions":[8.75E-1,1.8518518E-1,1.4760523E-1,1E0,1E0,-1.3931169E-1,1.4627364E-1,-1.3926108E-1,1.431595E-1],"split_indices":[9,11,0,7,6,0,0,0,0],"split_type":[0,0,0,0,0,0,0,0,0],"sum_hessian":[1.8085362E2,1.3736186E2,4.349176E1,5.19528E1,8.540906E1,1.9461569E1,3.249123E1,7.453772E1,1.0871337E1],"tree_param":{"num_deleted":"0","num_feature":"13","num_nodes":"9","size_leaf_vector":"1"}},{"base_weights":[1.51975425E-2,-1.3162415E-1,1.5091224E-1,-1.5172477E-1,2.824013E-1,1.4854437E-1,-1.442463E-1],"categories":[],"categories_nodes":[],"categories_segments":[],"categories_sizes":[],"default_left":[0,0,0,0,0,0,0],"id":46,"left_children":[1,3,-1,-1,5,-1,-1],"loss_changes":[1.0764765E1,1.804979E1,0E0,0E0,9.252715E0,0E0,0E0],"parents":[2147483647,0,0,1,1,4,4],"right_children":[2,4,-1,-1,6,-1,-1],"split_conditions":[1E0,1.4285715E-1,1.5091224E-1,-1.5172477E-1,3E0,1.4854437E-1,-1.442463E-1],"split_indices":[8,10,0,0,12,0,0],"split_type":[0,0,0,0,0,0,0],"sum_hessian":[1.4836694E2,1.1460541E2,3.3761543E1,6.008729E1,5.4518112E1,4.2908657E1,1.1609456E1],"tree_param":{"num_deleted":"0","num_feature":"13","num_nodes":"7","size_leaf_vector":"1"}},{"base_weights":[-8.767671E-3,-1.094642E-1,1.5087903E-1,-2.1161583E-1,1.4851406E-1,-1.0187402E-1,1.5153153E-1],"categories":[],"categories_nodes":[],"categories_segments":[],"categories_sizes":[],"default_left":[0,0,0,0,0,0,0],"id":47,"left_children":[1,3,-1,5,-1,-1,-1],"loss_changes":[9.391913E0,9.505327E0,0E0,1.2179375E1,0E0,0E0,0E0],"parents":[2147483647,0,0,1,1,3,3],"right_children":[2,4,-1,6,-1,-1,-1],"split_conditions":[1E0,1E0,1.5087903E-1,3E0,1.4851406E-1,-1.0187402E-1,1.5153153E-1],"split_indices":[5,2,0,12,0,0,0],"split_type":[0,0,0,0,0,0,0],"sum_hessian":[1.802061E2,1.5123148E2,2.8974627E1,1.299262E2,2.1305283E1,1.1068972E2,1.9236475E1],"tree_param":{"num_deleted":"0","num_feature":"13","num_nodes":"7","size_leaf_vector":"1"}},{"base_weights":[-3.0935898E-3,-1.6690645E-1,4.5810866E-1,1.4474218E-1,-3.2121292E-1,1.4723562E-1,-8.406796E-2,1.5137067E-1,-1.4240618E-1,-1.316171E-1,1.3905151E-1],"categories":[],"categories_nodes":[],"categories_segments":[],"categories_sizes":[],"default_left":[0,0,0,0,0,0,0,0,0,0,0],"id":48,"left_children":[1,3,5,7,9,-1,-1,-1,-1,-1,-1],"loss_changes":[1.0877922E1,5.155074E0,1.0480227E0,8.234248E0,6.7838316E0,0E0,0E0,0E0,0E0,0E0,0E0],"parents":[2147483647,0,0,1,1,2,2,3,3,4,4],"right_children":[2,4,6,8,10,-1,-1,-1,-1,-1,-1],"split_conditions":[8.4615386E-1,1.5E-1,1E0,1E0,1E0,1.4723562E-1,-8.406796E-2,1.5137067E-1,-1.4240618E-1,-1.316171E-1,1.3905151E-1],"split_indices":[9,11,4,2,6,0,0,0,0,0,0],"split_type":[0,0,0,0,0,0,0,0,0,0,0],"sum_hessian":[1.419694E2,1.052309E2,3.67385E1,3.4868973E1,7.036193E1,3.5502537E1,1.2359627E0,2.2173698E1,1.2695275E1,6.1581135E1,8.780798E0],"tree_param":{"num_deleted":"0","num_feature":"13","num_nodes":"11","size_leaf_vector":"1"}},{"base_weights":[1.1071452E-2,-1.3345273E-1,1.4844762E-1,-1.507751E-1,2.8068316E-1,1.4541748E-1,-1.3956459E-1],"categories":[],"categories_nodes":[],"categories_segments":[],"categories_sizes":[],"default_left":[0,0,0,0,0,0,0],"id":49,"left_children":[1,3,-1,-1,5,-1,-1],"loss_changes":[8.264876E0,1.4064778E1,0E0,0E0,6.855983E0,0E0,0E0],"parents":[2147483647,0,0,1,1,4,4],"right_children":[2,4,-1,-1,6,-1,-1],"split_conditions":[1E0,1.4285715E-1,1.4844762E-1,-1.507751E-1,3E0,1.4541748E-1,-1.3956459E-1],"split_indices":[8,10,0,0,12,0,0],"split_type":[0,0,0,0,0,0,0],"sum_hessian":[1.16270134E2,9.008182E1,2.6188314E1,4.751595E1,4.256587E1,3.36979E1,8.86797E0],"tree_param":{"num_deleted":"0","num_feature":"13","num_nodes":"7","size_leaf_vector":"1"}},{"base_weights":[-5.9075444E-3,-1.01995364E-1,1.4794059E-1,-2.102546E-1,1.4775853E-1,-9.995582E-2,1.4748204E-1],"categories":[],"categories_nodes":[],"categories_segments":[],"categories_sizes":[],"default_left":[0,0,0,0,0,0,0],"id":50,"left_children":[1,3,-1,5,-1,-1,-1],"loss_changes":[6.998144E0,7.9768333E0,0E0,9.152872E0,0E0,0E0,0E0],"parents":[2147483647,0,0,1,1,3,3],"right_children":[2,4,-1,6,-1,-1,-1],"split_conditions":[1E0,1E0,1.4794059E-1,3E0,1.4775853E-1,-9.995582E-2,1.4748204E-1],"split_indices":[3,5,0,12,0,0,0],"split_type":[0,0,0,0,0,0,0],"sum_hessian":[1.4389188E2,1.2132674E2,2.2565145E1,1.0318391E2,1.8142826E1,8.825183E1,1.493208E1],"tree_param":{"num_deleted":"0","num_feature":"13","num_nodes":"7","size_leaf_vector":"1"}},{"base_weights":[-7.0845126E-3,-1.549118E-1,1.4491054E-1,-3.5151923E-1,1.0447266E-1,-1.484981E-1,1.3492222E-1,1.5692513E-1,-1.4330013E-1],"categories":[],"categories_nodes":[],"categories_segments":[],"categories_sizes":[],"default_left":[0,0,0,0,0,0,0,0,0],"id":51,"left_children":[1,3,-1,5,7,-1,-1,-1,-1],"loss_changes":[8.303911E0,4.525298E0,0E0,6.004671E0,9.685664E0,0E0,0E0,0E0,0E0],"parents":[2147483647,0,0,1,1,3,3,4,4],"right_children":[2,4,-1,6,8,-1,-1,-1,-1],"split_conditions":[8.75E-1,1E0,1.4491054E-1,1E0,1E0,-1.484981E-1,1.3492222E-1,1.5692513E-1,-1.4330013E-1],"split_indices":[9,7,0,6,8,0,0,0,0],"split_type":[0,0,0,0,0,0,0,0,0],"sum_hessian":[1.12578125E2,8.701658E1,2.5561548E1,4.929608E1,3.7720497E1,4.2133793E1,7.1622887E0,2.2001139E1,1.5719359E1],"tree_param":{"num_deleted":"0","num_feature":"13","num_nodes":"9","size_leaf_vector":"1"}},{"base_weights":[1.1961831E-2,-1.2967353E-1,1.4590572E-1,-1.4985314E-1,2.7885407E-1,1.4217827E-1,-1.3440262E-1],"categories":[],"categories_nodes":[],"categories_segments":[],"categories_sizes":[],"default_left":[0,0,0,0,0,0,0],"id":52,"left_children":[1,3,-1,-1,5,-1,-1],"loss_changes":[6.193452E0,1.0874276E1,0E0,0E0,5.090145E0,0E0,0E0],"parents":[2147483647,0,0,1,1,4,4],"right_children":[2,4,-1,-1,6,-1,-1],"split_conditions":[1E0,1.4285715E-1,1.4590572E-1,-1.4985314E-1,3E0,1.4217827E-1,-1.3440262E-1],"split_indices":[8,10,0,0,12,0,0],"split_type":[0,0,0,0,0,0,0],"sum_hessian":[9.023889E1,7.005094E1,2.018795E1,3.6649612E1,3.3401325E1,2.6608253E1,6.793071E0],"tree_param":{"num_deleted":"0","num_feature":"13","num_nodes":"7","size_leaf_vector":"1"}},{"base_weights":[-2.4681077E-3,-1.03408836E-1,1.4713016E-1,-1.4659117E-1,5.2775398E-2,-1.7983997E-2,1.4350566E-1],"categories":[],"categories_nodes":[],"categories_segments":[],"categories_sizes":[],"default_left":[0,0,0,0,0,0,0],"id":53,"left_children":[1,3,-1,-1,5,-1,-1],"loss_changes":[5.8271804E0,5.8734984E0,0E0,0E0,3.3894422E0,0E0,0E0],"parents":[2147483647,0,0,1,1,4,4],"right_children":[2,4,-1,-1,6,-1,-1],"split_conditions":[1E0,2E-1,1.4713016E-1,-1.4659117E-1,1E0,-1.7983997E-2,1.4350566E-1],"split_indices":[2,11,0,0,3,0,0],"split_type":[0,0,0,0,0,0,0],"sum_hessian":[1.1510079E2,9.619197E1,1.890882E1,2.7134972E1,6.9057E1,5.5275406E1,1.3781594E1],"tree_param":{"num_deleted":"0","num_feature":"13","num_nodes":"7","size_leaf_vector":"1"}},{"base_weights":[-1.1087758E-2,-1.5407616E-1,1.4302897E-1,-3.4151286E-1,1.0448694E-1,-1.4716041E-1,1.3134146E-1,1.5240696E-1,-1.4001909E-1],"categories":[],"categories_nodes":[],"categories_segments":[],"categories_sizes":[],"default_left":[0,0,0,0,0,0,0,0,0],"id":54,"left_children":[1,3,-1,5,7,-1,-1,-1,-1],"loss_changes":[6.2454762E0,3.3884196E0,0E0,4.899699E0,7.115269E0,0E0,0E0,0E0,0E0],"parents":[2147483647,0,0,1,1,3,3,4,4],"right_children":[2,4,-1,6,8,-1,-1,-1,-1],"split_conditions":[8.75E-1,1E0,1.4302897E-1,1E0,1E0,-1.4716041E-1,1.3134146E-1,1.5240696E-1,-1.4001909E-1],"split_indices":[9,7,0,6,8,0,0,0,0],"split_type":[0,0,0,0,0,0,0,0,0],"sum_hessian":[8.7478806E1,6.8179634E1,1.9299175E1,3.9340347E1,2.8839283E1,3.3336308E1,6.0040402E0,1.6964996E1,1.1874287E1],"tree_param":{"num_deleted":"0","num_feature":"13","num_nodes":"9","size_leaf_vector":"1"}},{"base_weights":[1.5415557E-2,-1.1913794E-1,1.4328755E-1,-1.479427E-1,2.651934E-1,1.394577E-1,-1.3163361E-1],"categories":[],"categories_nodes":[],"categories_segments":[],"categories_sizes":[],"default_left":[0,0,0,0,0,0,0],"id":55,"left_children":[1,3,-1,-1,5,-1,-1],"loss_changes":[4.608365E0,8.393549E0,0E0,0E0,4.2802725E0,0E0,0E0],"parents":[2147483647,0,0,1,1,4,4],"right_children":[2,4,-1,-1,6,-1,-1],"split_conditions":[1E0,1.4285715E-1,1.4328755E-1,-1.479427E-1,3E0,1.394577E-1,-1.3163361E-1],"split_indices":[8,10,0,0,12,0,0],"split_type":[0,0,0,0,0,0,0],"sum_hessian":[7.218413E1,5.64835E1,1.5700629E1,2.8482859E1,2.8000643E1,2.20783E1,5.922343E0],"tree_param":{"num_deleted":"0","num_feature":"13","num_nodes":"7","size_leaf_vector":"1"}},{"base_weights":[-1.5623613E-3,-9.4927244E-2,1.4447862E-1,-1.972053E-1,1.407301E-1,-9.6462406E-2,1.412592E-1],"categories":[],"categories_nodes":[],"categories_segments":[],"categories_sizes":[],"default_left":[0,0,0,0,0,0,0],"id":56,"left_children":[1,3,-1,5,-1,-1,-1],"loss_changes":[4.2986827E0,4.6987042E0,0E0,5.824302E0,0E0,0E0,0E0],"parents":[2147483647,0,0,1,1,3,3],"right_children":[2,4,-1,6,-1,-1,-1],"split_conditions":[1E0,1E0,1.4447862E-1,3E0,1.407301E-1,-9.6462406E-2,1.412592E-1],"split_indices":[5,2,0,12,0,0,0],"split_type":[0,0,0,0,0,0,0],"sum_hessian":[9.3279976E1,7.884716E1,1.4432814E1,6.729463E1,1.15525255E1,5.7172768E1,1.0121866E1],"tree_param":{"num_deleted":"0","num_feature":"13","num_nodes":"7","size_leaf_vector":"1"}},{"base_weights":[-1.1129178E-2,-1.6076304E-1,4.410764E-1,-3.3797964E-1,9.286138E-2,2.8002022E-2,1.408929E-1,-1.4557509E-1,1.2554385E-1,1.4747116E-1,-1.362364E-1],"categories":[],"categories_nodes":[],"categories_segments":[],"categories_sizes":[],"default_left":[0,0,0,0,0,0,0,0,0,0,0],"id":57,"left_children":[1,3,5,7,9,-1,-1,-1,-1,-1,-1],"loss_changes":[4.7588234E0,2.4040499E0,1.2992525E-1,3.6889944E0,5.129729E0,0E0,0E0,0E0,0E0,0E0,0E0],"parents":[2147483647,0,0,1,1,2,2,3,3,4,4],"right_children":[2,4,6,8,10,-1,-1,-1,-1,-1,-1],"split_conditions":[8.4615386E-1,1E0,8.75E-1,1E0,1E0,2.8002022E-2,1.408929E-1,-1.4557509E-1,1.2554385E-1,1.4747116E-1,-1.362364E-1],"split_indices":[9,7,9,6,8,0,0,0,0,0,0],"split_type":[0,0,0,0,0,0,0,0,0,0,0],"sum_hessian":[6.828097E1,5.1788692E1,1.6492277E1,3.0290806E1,2.1497887E1,1.5759485E0,1.4916328E1,2.5654755E1,4.636051E0,1.24928465E1,9.005039E0],"tree_param":{"num_deleted":"0","num_feature":"13","num_nodes":"11","size_leaf_vector":"1"}},{"base_weights":[1.1684865E-2,-1.1918766E-1,1.4020145E-1,-1.4599723E-1,2.6073965E-1,1.355276E-1,-1.2558606E-1],"categories":[],"categories_nodes":[],"categories_segments":[],"categories_sizes":[],"default_left":[0,0,0,0,0,0,0],"id":58,"left_children":[1,3,-1,-1,5,-1,-1],"loss_changes":[3.4884417E0,6.481623E0,0E0,0E0,3.1777818E0,0E0,0E0],"parents":[2147483647,0,0,1,1,4,4],"right_children":[2,4,-1,-1,6,-1,-1],"split_conditions":[1E0,1.4285715E-1,1.4020145E-1,-1.4599723E-1,3E0,1.355276E-1,-1.2558606E-1],"split_indices":[8,10,0,0,12,0,0],"split_type":[0,0,0,0,0,0,0],"sum_hessian":[5.6564938E1,4.4517162E1,1.2047774E1,2.2486784E1,2.2030378E1,1.7456945E1,4.5734334E0],"tree_param":{"num_deleted":"0","num_feature":"13","num_nodes":"7","size_leaf_vector":"1"}},{"base_weights":[1.3033233E-3,-9.2392296E-2,1.4053126E-1,-1.9692954E-1,1.4012396E-1,-9.7164154E-2,1.3587141E-1],"categories":[],"categories_nodes":[],"categories_segments":[],"categories_sizes":[],"default_left":[0,0,0,0,0,0,0],"id":59,"left_children":[1,3,-1,5,-1,-1,-1],"loss_changes":[3.3471975E0,3.8181267E0,0E0,4.6331806E0,0E0,0E0,0E0],"parents":[2147483647,0,0,1,1,3,3],"right_children":[2,4,-1,6,-1,-1,-1],"split_conditions":[1E0,1E0,1.4053126E-1,1E0,1.4012396E-1,-9.7164154E-2,1.3587141E-1],"split_indices":[3,5,0,2,0,0,0],"split_type":[0,0,0,0,0,0,0],"sum_hessian":[7.448632E1,6.271038E1,1.1775944E1,5.3383663E1,9.326718E0,4.5078724E1,8.304938E0],"tree_param":{"num_deleted":"0","num_feature":"13","num_nodes":"7","size_leaf_vector":"1"}},{"base_weights":[-1.1006098E-2,-1.4855851E-1,1.3829735E-1,-3.324346E-1,1.137082E-1,-1.440307E-1,1.2051575E-1,1.4358035E-1,-1.3183124E-1],"categories":[],"categories_nodes":[],"categories_segments":[],"categories_sizes":[],"default_left":[0,0,0,0,0,0,0,0,0],"id":60,"left_children":[1,3,-1,5,7,-1,-1,-1,-1],"loss_changes":[3.6118672E0,2.112295E0,0E0,2.961982E0,3.9392054E0,0E0,0E0,0E0,0E0],"parents":[2147483647,0,0,1,1,3,3,4,4],"right_children":[2,4,-1,6,8,-1,-1,-1,-1],"split_conditions":[8.75E-1,1E0,1.3829735E-1,1E0,1E0,-1.440307E-1,1.2051575E-1,1.4358035E-1,-1.3183124E-1],"split_indices":[9,7,0,6,8,0,0,0,0],"split_type":[0,0,0,0,0,0,0,0,0],"sum_hessian":[5.357709E1,4.2017376E1,1.1559713E1,2.4542797E1,1.747458E1,2.0721016E1,3.8217802E0,1.0610156E1,6.864424E0],"tree_param":{"num_deleted":"0","num_feature":"13","num_nodes":"9","size_leaf_vector":"1"}},{"base_weights":[7.970953E-3,-1.1897988E-1,1.3668513E-1,-1.4356922E-1,2.2562143E-1,1.311535E-1,-1.2413528E-1],"categories":[],"categories_nodes":[],"categories_segments":[],"categories_sizes":[],"default_left":[0,0,0,0,0,0,0],"id":61,"left_children":[1,3,-1,-1,5,-1,-1],"loss_changes":[2.645973E0,4.6088777E0,0E0,0E0,2.7818198E0,0E0,0E0],"parents":[2147483647,0,0,1,1,4,4],"right_children":[2,4,-1,-1,6,-1,-1],"split_conditions":[1E0,1.4285715E-1,1.3668513E-1,-1.4356922E-1,3E0,1.311535E-1,-1.2413528E-1],"split_indices":[8,10,0,0,12,0,0],"split_type":[0,0,0,0,0,0,0],"sum_hessian":[4.4606323E1,3.5323044E1,9.283278E0,1.7095503E1,1.8227541E1,1.3933658E1,4.293884E0],"tree_param":{"num_deleted":"0","num_feature":"13","num_nodes":"7","size_leaf_vector":"1"}},{"base_weights":[3.9157947E-3,9.2321716E-2,-1.3666083E-1,1.9866316E-1,-1.332035E-1,1.10806964E-1,-9.943983E-3],"categories":[],"categories_nodes":[],"categories_segments":[],"categories_sizes":[],"default_left":[0,0,0,0,0,0,0],"id":62,"left_children":[1,3,-1,5,-1,-1,-1],"loss_changes":[2.5030656E0,3.0336528E0,0E0,1.7448982E0,0E0,0E0,0E0],"parents":[2147483647,0,0,1,1,3,3],"right_children":[2,4,-1,6,-1,-1,-1],"split_conditions":[1E0,8.181818E-1,-1.3666083E-1,2E-1,-1.332035E-1,1.10806964E-1,-9.943983E-3],"split_indices":[7,9,0,10,0,0,0],"split_type":[0,0,0,0,0,0,0],"sum_hessian":[5.958875E1,5.0643238E1,8.945512E0,4.2788868E1,7.8543677E0,2.4301252E1,1.8487617E1],"tree_param":{"num_deleted":"0","num_feature":"13","num_nodes":"7","size_leaf_vector":"1"}},{"base_weights":[-1.117933E-2,-1.4132838E-1,1.3484924E-1,-2.1685396E-1,1.1901817E-1,-1.4217584E-1,3.2978624E-2],"categories":[],"categories_nodes":[],"categories_segments":[],"categories_sizes":[],"default_left":[0,0,0,0,0,0,0],"id":63,"left_children":[1,3,-1,5,-1,-1,-1],"loss_changes":[2.6618605E0,1.4900913E0,0E0,2.6516137E0,0E0,0E0,0E0],"parents":[2147483647,0,0,1,1,3,3],"right_children":[2,4,-1,6,-1,-1,-1],"split_conditions":[8.75E-1,1E0,1.3484924E-1,1E0,1.1901817E-1,-1.4217584E-1,3.2978624E-2],"split_indices":[9,6,0,7,0,0,0],"split_type":[0,0,0,0,0,0,0],"sum_hessian":[4.2336884E1,3.355129E1,8.785595E0,2.9944952E1,3.6063347E0,1.6508326E1,1.3436627E1],"tree_param":{"num_deleted":"0","num_feature":"13","num_nodes":"7","size_leaf_vector":"1"}},{"base_weights":[1.1373171E-2,-1.0615675E-1,1.3246927E-1,-1.4083782E-1,2.0910232E-1,1.273608E-1,-1.21213615E-1],"categories":[],"categories_nodes":[],"categories_segments":[],"categories_sizes":[],"default_left":[0,0,0,0,0,0,0],"id":64,"left_children":[1,3,-1,-1,5,-1,-1],"loss_changes":[1.9143634E0,3.5131633E0,0E0,0E0,2.3716078E0,0E0,0E0],"parents":[2147483647,0,0,1,1,4,4],"right_children":[2,4,-1,-1,6,-1,-1],"split_conditions":[1E0,1.4285715E-1,1.3246927E-1,-1.4083782E-1,3E0,1.273608E-1,-1.21213615E-1],"split_indices":[8,10,0,0,12,0,0],"split_type":[0,0,0,0,0,0,0],"sum_hessian":[3.5935856E1,2.8816347E1,7.1195083E0,1.31608E1,1.5655547E1,1.1812689E1,3.842858E0],"tree_param":{"num_deleted":"0","num_feature":"13","num_nodes":"7","size_leaf_vector":"1"}},{"base_weights":[1.2954309E-3,-9.4286226E-2,1.3582432E-1,-1.9559148E-1,1.3010556E-1,-9.782701E-2,1.3248323E-1],"categories":[],"categories_nodes":[],"categories_segments":[],"categories_sizes":[],"default_left":[0,0,0,0,0,0,0],"id":65,"left_children":[1,3,-1,5,-1,-1,-1],"loss_changes":[2.1895823E0,2.3252542E0,0E0,3.1237183E0,0E0,0E0,0E0],"parents":[2147483647,0,0,1,1,3,3],"right_children":[2,4,-1,6,-1,-1,-1],"split_conditions":[3E0,1E0,1.3582432E-1,1E0,1.3010556E-1,-9.782701E-2,1.3248323E-1],"split_indices":[12,3,0,5,0,0,0],"split_type":[0,0,0,0,0,0,0],"sum_hessian":[4.8753574E1,4.088792E1,7.865657E0,3.4833694E1,6.054223E0,2.9317701E1,5.515995E0],"tree_param":{"num_deleted":"0","num_feature":"13","num_nodes":"7","size_leaf_vector":"1"}},{"base_weights":[-1.55651225E-2,-1.4617272E-1,1.2297308E-1,-2.1845275E-1,1.1203888E-1,-1.4000687E-1,2.4575409E-2],"categories":[],"categories_nodes":[],"categories_segments":[],"categories_sizes":[],"default_left":[0,0,0,0,0,0,0],"id":66,"left_children":[1,3,-1,5,-1,-1,-1],"loss_changes":[2.0634007E0,1.1453542E0,0E0,1.9392061E0,0E0,0E0,0E0],"parents":[2147483647,0,0,1,1,3,3],"right_children":[2,4,-1,6,-1,-1,-1],"split_conditions":[8.4615386E-1,1E0,1.2297308E-1,1E0,1.1203888E-1,-1.4000687E-1,2.4575409E-2],"split_indices":[9,6,0,7,0,0,0],"split_type":[0,0,0,0,0,0,0],"sum_hessian":[3.5053116E1,2.7322433E1,7.7306824E0,2.4494864E1,2.8275707E0,1.3108135E1,1.1386728E1],"tree_param":{"num_deleted":"0","num_feature":"13","num_nodes":"7","size_leaf_vector":"1"}},{"base_weights":[1.9390278E-2,-1.0685577E-1,1.3012171E-1,-1.381616E-1,2.0228654E-1,1.21710025E-1,-1.14153914E-1],"categories":[],"categories_nodes":[],"categories_segments":[],"categories_sizes":[],"default_left":[0,0,0,0,0,0,0],"id":67,"left_children":[1,3,-1,-1,5,-1,-1],"loss_changes":[1.6259592E0,2.7115436E0,0E0,0E0,1.751611E0,0E0,0E0],"parents":[2147483647,0,0,1,1,4,4],"right_children":[2,4,-1,-1,6,-1,-1],"split_conditions":[1E0,1.4285715E-1,1.3012171E-1,-1.381616E-1,3E0,1.21710025E-1,-1.14153914E-1],"split_indices":[8,10,0,0,12,0,0],"split_type":[0,0,0,0,0,0,0],"sum_hessian":[2.919719E1,2.2947523E1,6.249666E0,1.0474337E1,1.2473187E1,9.47131E0,3.0018773E0],"tree_param":{"num_deleted":"0","num_feature":"13","num_nodes":"7","size_leaf_vector":"1"}},{"base_weights":[-5.959633E-4,-9.414853E-2,1.3408977E-1,-2.0253591E-1,1.2828526E-1,-9.833338E-2,1.23229384E-1],"categories":[],"categories_nodes":[],"categories_segments":[],"categories_sizes":[],"default_left":[0,0,0,0,0,0,0],"id":68,"left_children":[1,3,-1,5,-1,-1,-1],"loss_changes":[1.7437453E0,2.0343277E0,0E0,2.37717E0,0E0,0E0,0E0],"parents":[2147483647,0,0,1,1,3,3],"right_children":[2,4,-1,6,-1,-1,-1],"split_conditions":[1E0,3E0,1.3408977E-1,1E0,1.2828526E-1,-9.833338E-2,1.23229384E-1],"split_indices":[2,12,0,3,0,0,0],"split_type":[0,0,0,0,0,0,0],"sum_hessian":[3.9641068E1,3.3440697E1,6.2003717E0,2.8195435E1,5.2452607E0,2.3800655E1,4.394778E0],"tree_param":{"num_deleted":"0","num_feature":"13","num_nodes":"7","size_leaf_vector":"1"}},{"base_weights":[-1.5172394E-2,-1.2901464E-1,1.2676102E-1,-2.9839274E-1,8.928154E-2,-1.3769445E-1,1.06083654E-1,1.3275644E-1,-1.2223673E-1],"categories":[],"categories_nodes":[],"categories_segments":[],"categories_sizes":[],"default_left":[0,0,0,0,0,0,0,0,0],"id":69,"left_children":[1,3,-1,5,7,-1,-1,-1,-1],"loss_changes":[1.549471E0,9.352914E-1,0E0,1.6353152E0,2.199362E0,0E0,0E0,0E0,0E0],"parents":[2147483647,0,0,1,1,3,3,4,4],"right_children":[2,4,-1,6,8,-1,-1,-1,-1],"split_conditions":[8.75E-1,1E0,1.2676102E-1,1E0,1E0,-1.3769445E-1,1.06083654E-1,1.3275644E-1,-1.2223673E-1],"split_indices":[9,7,0,6,8,0,0,0,0],"split_type":[0,0,0,0,0,0,0,0,0],"sum_hessian":[2.9001282E1,2.3574993E1,5.426288E0,1.3068275E1,1.0506719E1,1.0723199E1,2.3450766E0,6.2040424E0,4.302676E0],"tree_param":{"num_deleted":"0","num_feature":"13","num_nodes":"9","size_leaf_vector":"1"}},{"base_weights":[2.176399E-2,-1.1166369E-1,1.2754215E-1,-1.3554454E-1,1.948393E-1,1.1566765E-1,-1.06742404E-1],"categories":[],"categories_nodes":[],"categories_segments":[],"categories_sizes":[],"default_left":[0,0,0,0,0,0,0],"id":70,"left_children":[1,3,-1,-1,5,-1,-1],"loss_changes":[1.405156E0,2.14686E0,0E0,0E0,1.3014536E0,0E0,0E0],"parents":[2147483647,0,0,1,1,4,4],"right_children":[2,4,-1,-1,6,-1,-1],"split_conditions":[1E0,1.4285715E-1,1.2754215E-1,-1.3554454E-1,3E0,1.1566765E-1,-1.06742404E-1],"split_indices":[8,10,0,0,12,0,0],"split_type":[0,0,0,0,0,0,0],"sum_hessian":[2.4225626E1,1.8747545E1,5.47808E0,8.661298E0,1.0086247E1,7.714202E0,2.3720453E0],"tree_param":{"num_deleted":"0","num_feature":"13","num_nodes":"7","size_leaf_vector":"1"}},{"base_weights":[-2.8043753E-3,-9.213375E-2,1.2991148E-1,-1.946462E-1,1.2272894E-1,-9.4638675E-2,1.1812588E-1],"categories":[],"categories_nodes":[],"categories_segments":[],"categories_sizes":[],"default_left":[0,0,0,0,0,0,0],"id":71,"left_children":[1,3,-1,5,-1,-1,-1],"loss_changes":[1.3410327E0,1.547081E0,0E0,1.8578959E0,0E0,0E0,0E0],"parents":[2147483647,0,0,1,1,3,3],"right_children":[2,4,-1,6,-1,-1,-1],"split_conditions":[1E0,3E0,1.2991148E-1,1E0,1.2272894E-1,-9.4638675E-2,1.1812588E-1],"split_indices":[5,12,0,2,0,0,0],"split_type":[0,0,0,0,0,0,0],"sum_hessian":[3.2419388E1,2.7559465E1,4.859922E0,2.3387814E1,4.1716514E0,1.9788502E1,3.599311E0],"tree_param":{"num_deleted":"0","num_feature":"13","num_nodes":"7","size_leaf_vector":"1"}},{"base_weights":[-1.5861882E-2,-1.2763403E-1,1.2172613E-1,-2.9120624E-1,8.940361E-2,-1.3479447E-1,9.9230014E-2,1.2739304E-1,-1.1597493E-1],"categories":[],"categories_nodes":[],"categories_segments":[],"categories_sizes":[],"default_left":[0,0,0,0,0,0,0,0,0],"id":72,"left_children":[1,3,-1,5,7,-1,-1,-1,-1],"loss_changes":[1.1877748E0,7.2949964E-1,0E0,1.2828864E0,1.6451167E0,0E0,0E0,0E0,0E0],"parents":[2147483647,0,0,1,1,3,3,4,4],"right_children":[2,4,-1,6,8,-1,-1,-1,-1],"split_conditions":[8.75E-1,1E0,1.2172613E-1,1E0,1E0,-1.3479447E-1,9.9230014E-2,1.2739304E-1,-1.1597493E-1],"split_indices":[9,7,0,6,8,0,0,0,0],"split_type":[0,0,0,0,0,0,0,0,0],"sum_hessian":[2.3105879E1,1.8815168E1,4.2907095E0,1.0534229E1,8.28094E0,8.620461E0,1.9137675E0,4.9221277E0,3.358812E0],"tree_param":{"num_deleted":"0","num_feature":"13","num_nodes":"9","size_leaf_vector":"1"}},{"base_weights":[1.6186172E-2,-1.1305007E-1,1.2223943E-1,-1.320457E-1,1.8375508E-1,1.0879959E-1,-9.911382E-2],"categories":[],"categories_nodes":[],"categories_segments":[],"categories_sizes":[],"default_left":[0,0,0,0,0,0,0],"id":73,"left_children":[1,3,-1,-1,5,-1,-1],"loss_changes":[1.0819116E0,1.6518531E0,0E0,0E0,9.650589E-1,0E0,0E0],"parents":[2147483647,0,0,1,1,4,4],"right_children":[2,4,-1,-1,6,-1,-1],"split_conditions":[1E0,1.4285715E-1,1.2223943E-1,-1.320457E-1,3E0,1.0879959E-1,-9.911382E-2],"split_indices":[8,10,0,0,12,0,0],"split_type":[0,0,0,0,0,0,0],"sum_hessian":[1.9484505E1,1.5181312E1,4.3031926E0,6.992295E0,8.189017E0,6.29357E0,1.8954474E0],"tree_param":{"num_deleted":"0","num_feature":"13","num_nodes":"7","size_leaf_vector":"1"}},{"base_weights":[1.8537759E-3,-8.380609E-2,1.2530977E-1,-1.7944592E-1,1.1584503E-1,-9.205484E-2,1.15421005E-1],"categories":[],"categories_nodes":[],"categories_segments":[],"categories_sizes":[],"default_left":[0,0,0,0,0,0,0],"id":74,"left_children":[1,3,-1,5,-1,-1,-1],"loss_changes":[1.0115002E0,1.1284044E0,0E0,1.5744658E0,0E0,0E0,0E0],"parents":[2147483647,0,0,1,1,3,3],"right_children":[2,4,-1,6,-1,-1,-1],"split_conditions":[1E0,1E0,1.2530977E-1,3E0,1.1584503E-1,-9.205484E-2,1.15421005E-1],"split_indices":[2,3,0,12,0,0,0],"split_type":[0,0,0,0,0,0,0],"sum_hessian":[2.641325E1,2.2563808E1,3.8494432E0,1.9262001E1,3.3018062E0,1.6085659E1,3.1763418E0],"tree_param":{"num_deleted":"0","num_feature":"13","num_nodes":"7","size_leaf_vector":"1"}},{"base_weights":[-1.6261762E-2,1.8443014E-1,-2.3879777E-1,3.2305527E-1,-9.716672E-2,-3.6186734E-1,8.75599E-2,1.2763159E-1,9.723842E-3,-1.23792455E-1,-1.7113784E-2],"categories":[],"categories_nodes":[],"categories_segments":[],"categories_sizes":[],"default_left":[0,0,0,0,0,0,0,0,0,0,0],"id":75,"left_children":[1,3,5,7,-1,9,-1,-1,-1,-1,-1],"loss_changes":[9.168487E-1,8.6848307E-1,7.392977E-1,2.5455505E-1,0E0,1.0527146E-1,0E0,0E0,0E0,0E0,0E0],"parents":[2147483647,0,0,1,1,2,2,3,3,5,5],"right_children":[2,4,6,8,-1,10,-1,-1,-1,-1,-1],"split_conditions":[3.3333334E-1,1E0,1E0,1.4285715E-1,-9.716672E-2,6.363636E-1,8.75599E-2,1.2763159E-1,9.723842E-3,-1.23792455E-1,-1.7113784E-2],"split_indices":[11,2,6,11,0,9,0,0,0,0,0],"split_type":[0,0,0,0,0,0,0,0,0,0,0],"sum_hessian":[1.8542864E1,9.839995E0,8.702868E0,8.017881E0,1.8221147E0,7.3227015E0,1.3801668E0,5.58625E0,2.4316308E0,5.9739103E0,1.348791E0],"tree_param":{"num_deleted":"0","num_feature":"13","num_nodes":"11","size_leaf_vector":"1"}},{"base_weights":[1.0022777E-2,-1.1500822E-1,1.16422616E-1,-1.1928153E-1,2.09541E-1,1.2276869E-1,-9.094564E-2],"categories":[],"categories_nodes":[],"categories_segments":[],"categories_sizes":[],"default_left":[0,0,0,0,0,0,0],"id":76,"left_children":[1,3,-1,-1,5,-1,-1],"loss_changes":[8.4089345E-1,1.3151003E0,0E0,0E0,8.310903E-1,0E0,0E0],"parents":[2147483647,0,0,1,1,4,4],"right_children":[2,4,-1,-1,6,-1,-1],"split_conditions":[1E0,2E-1,1.16422616E-1,-1.1928153E-1,3E0,1.2276869E-1,-9.094564E-2],"split_indices":[8,10,0,0,12,0,0],"split_type":[0,0,0,0,0,0,0],"sum_hessian":[1.5845574E1,1.2430349E1,3.4152248E0,6.524302E0,5.906048E0,4.395757E0,1.5102906E0],"tree_param":{"num_deleted":"0","num_feature":"13","num_nodes":"7","size_leaf_vector":"1"}},{"base_weights":[6.570099E-3,-9.124922E-2,1.2371395E-1,-1.8643762E-1,1.09317295E-1,-9.372123E-2,1.08628295E-1],"categories":[],"categories_nodes":[],"categories_segments":[],"categories_sizes":[],"default_left":[0,0,0,0,0,0,0],"id":77,"left_children":[1,3,-1,5,-1,-1,-1],"loss_changes":[9.3861276E-1,8.966582E-1,0E0,1.2509366E0,0E0,0E0,0E0],"parents":[2147483647,0,0,1,1,3,3],"right_children":[2,4,-1,6,-1,-1,-1],"split_conditions":[1E0,1E0,1.2371395E-1,3E0,1.09317295E-1,-9.372123E-2,1.08628295E-1],"split_indices":[5,3,0,12,0,0,0],"split_type":[0,0,0,0,0,0,0],"sum_hessian":[2.1697065E1,1.8107456E1,3.58961E0,1.5467039E1,2.6404169E0,1.2928559E1,2.53848E0],"tree_param":{"num_deleted":"0","num_feature":"13","num_nodes":"7","size_leaf_vector":"1"}},{"base_weights":[-2.3772879E-2,-1.2998474E-1,1.10535145E-1,-2.821767E-1,8.841678E-2,-1.2897472E-1,8.593403E-2,1.1664117E-1,-1.0289581E-1],"categories":[],"categories_nodes":[],"categories_segments":[],"categories_sizes":[],"default_left":[0,0,0,0,0,0,0,0,0],"id":78,"left_children":[1,3,-1,5,7,-1,-1,-1,-1],"loss_changes":[7.3907983E-1,4.8349136E-1,0E0,8.2617325E-1,9.661839E-1,0E0,0E0,0E0,0E0],"parents":[2147483647,0,0,1,1,3,3,4,4],"right_children":[2,4,-1,6,8,-1,-1,-1,-1],"split_conditions":[8.75E-1,1E0,1.10535145E-1,1E0,1E0,-1.2897472E-1,8.593403E-2,1.1664117E-1,-1.0289581E-1],"split_indices":[9,7,0,6,8,0,0,0,0],"split_type":[0,0,0,0,0,0,0,0,0],"sum_hessian":[1.559163E1,1.2795323E1,2.796306E0,7.368567E0,5.426757E0,6.042538E0,1.3260285E0,3.2573788E0,2.169378E0],"tree_param":{"num_deleted":"0","num_feature":"13","num_nodes":"9","size_leaf_vector":"1"}},{"base_weights":[1.1474044E-2,-1.096378E-1,1.1072791E-1,-1.24106966E-1,1.6763161E-1,9.759625E-2,-8.41241E-2],"categories":[],"categories_nodes":[],"categories_segments":[],"categories_sizes":[],"default_left":[0,0,0,0,0,0,0],"id":79,"left_children":[1,3,-1,-1,5,-1,-1],"loss_changes":[6.5007776E-1,1.0207347E0,0E0,0E0,5.585286E-1,0E0,0E0],"parents":[2147483647,0,0,1,1,4,4],"right_children":[2,4,-1,-1,6,-1,-1],"split_conditions":[1E0,1.4285715E-1,1.1072791E-1,-1.24106966E-1,3E0,9.759625E-2,-8.41241E-2],"split_indices":[8,10,0,0,12,0,0],"split_type":[0,0,0,0,0,0,0],"sum_hessian":[1.3074913E1,1.0285151E1,2.7897632E0,4.670973E0,5.614177E0,4.355258E0,1.258919E0],"tree_param":{"num_deleted":"0","num_feature":"13","num_nodes":"7","size_leaf_vector":"1"}},{"base_weights":[1.2224273E-2,-7.9914436E-2,1.16885744E-1,-1.718088E-1,1.03531644E-1,-8.626795E-2,1.0142499E-1],"categories":[],"categories_nodes":[],"categories_segments":[],"categories_sizes":[],"default_left":[0,0,0,0,0,0,0],"id":80,"left_children":[1,3,-1,5,-1,-1,-1],"loss_changes":[6.9362766E-1,6.897958E-1,0E0,9.200225E-1,0E0,0E0,0E0],"parents":[2147483647,0,0,1,1,3,3],"right_children":[2,4,-1,6,-1,-1,-1],"split_conditions":[1E0,1E0,1.16885744E-1,3E0,1.03531644E-1,-8.626795E-2,1.0142499E-1],"split_indices":[2,5,0,12,0,0,0],"split_type":[0,0,0,0,0,0,0],"sum_hessian":[1.805207E1,1.5143196E1,2.908874E0,1.29409685E1,2.202228E0,1.0902109E1,2.0388587E0],"tree_param":{"num_deleted":"0","num_feature":"13","num_nodes":"7","size_leaf_vector":"1"}},{"base_weights":[-2.408561E-2,-1.279152E-1,1.0416648E-1,-2.7220428E-1,8.497889E-2,-1.250396E-1,7.9322964E-2,1.1020344E-1,-9.569718E-2],"categories":[],"categories_nodes":[],"categories_segments":[],"categories_sizes":[],"default_left":[0,0,0,0,0,0,0,0,0],"id":81,"left_children":[1,3,-1,5,7,-1,-1,-1,-1],"loss_changes":[5.7384336E-1,3.7523875E-1,0E0,6.5877306E-1,7.322873E-1,0E0,0E0,0E0,0E0],"parents":[2147483647,0,0,1,1,3,3,4,4],"right_children":[2,4,-1,6,8,-1,-1,-1,-1],"split_conditions":[8.75E-1,1E0,1.0416648E-1,1E0,1E0,-1.250396E-1,7.9322964E-2,1.1020344E-1,-9.569718E-2],"split_indices":[9,7,0,6,8,0,0,0,0],"split_type":[0,0,0,0,0,0,0,0,0],"sum_hessian":[1.27326E1,1.0462457E1,2.2701433E0,6.0699525E0,4.392504E0,4.957422E0,1.1125306E0,2.6387427E0,1.7537615E0],"tree_param":{"num_deleted":"0","num_feature":"13","num_nodes":"9","size_leaf_vector":"1"}},{"base_weights":[5.3834924E-3,-1.1183672E-1,1.0427921E-1,-3.634068E-1,1.9303343E-1,-1.2079819E-1,-3.4606423E-2,1.12380214E-1,-7.65559E-2],"categories":[],"categories_nodes":[],"categories_segments":[],"categories_sizes":[],"default_left":[0,0,0,0,0,0,0,0,0],"id":82,"left_children":[1,3,-1,5,7,-1,-1,-1,-1],"loss_changes":[5.137797E-1,8.0450124E-1,0E0,8.009076E-3,5.010321E-1,0E0,0E0,0E0,0E0],"parents":[2147483647,0,0,1,1,3,3,4,4],"right_children":[2,4,-1,6,8,-1,-1,-1,-1],"split_conditions":[1E0,2E-1,1.0427921E-1,8.333333E-1,3E0,-1.2079819E-1,-3.4606423E-2,1.12380214E-1,-7.65559E-2],"split_indices":[8,10,0,9,12,0,0,0,0],"split_type":[0,0,0,0,0,0,0,0,0],"sum_hessian":[1.0838785E1,8.57481E0,2.2639754E0,4.5928864E0,3.9819233E0,3.4272401E0,1.1656462E0,2.950832E0,1.0310913E0],"tree_param":{"num_deleted":"0","num_feature":"13","num_nodes":"9","size_leaf_vector":"1"}},{"base_weights":[1.6618274E-2,-7.1818285E-2,1.1131117E-1,-1.7159888E-1,1.0088292E-1,-8.543935E-2,9.456971E-2],"categories":[],"categories_nodes":[],"categories_segments":[],"categories_sizes":[],"default_left":[0,0,0,0,0,0,0],"id":83,"left_children":[1,3,-1,5,-1,-1,-1],"loss_changes":[5.3052753E-1,6.157115E-1,0E0,7.3308253E-1,0E0,0E0,0E0],"parents":[2147483647,0,0,1,1,3,3],"right_children":[2,4,-1,6,-1,-1,-1],"split_conditions":[1E0,1E0,1.1131117E-1,3E0,1.0088292E-1,-8.543935E-2,9.456971E-2],"split_indices":[5,3,0,12,0,0,0],"split_type":[0,0,0,0,0,0,0],"sum_hessian":[1.5076022E1,1.270353E1,2.3724914E0,1.0673367E1,2.0301638E0,8.996484E0,1.676883E0],"tree_param":{"num_deleted":"0","num_feature":"13","num_nodes":"7","size_leaf_vector":"1"}},{"base_weights":[-2.6370194E-2,-1.2950139E-1,9.846395E-2,-7.971831E-2,8.089931E-2,1.0361693E-1,-8.857465E-2],"categories":[],"categories_nodes":[],"categories_segments":[],"categories_sizes":[],"default_left":[0,0,0,0,0,0,0],"id":84,"left_children":[1,3,-1,-1,5,-1,-1],"loss_changes":[4.6870348E-1,3.0083317E-1,0E0,0E0,5.592978E-1,0E0,0E0],"parents":[2147483647,0,0,1,1,4,4],"right_children":[2,4,-1,-1,6,-1,-1],"split_conditions":[8.75E-1,1E0,9.846395E-2,-7.971831E-2,1E0,1.0361693E-1,-8.857465E-2],"split_indices":[9,7,0,0,8,0,0],"split_type":[0,0,0,0,0,0,0],"sum_hessian":[1.065479E1,8.745829E0,1.9089609E0,5.1490555E0,3.5967736E0,2.159842E0,1.4369316E0],"tree_param":{"num_deleted":"0","num_feature":"13","num_nodes":"7","size_leaf_vector":"1"}},{"base_weights":[4.2025377E-3,-1.0952512E-1,9.772373E-2,-1.1453115E-1,1.4412189E-1,9.3056396E-2,-3.1540357E-2],"categories":[],"categories_nodes":[],"categories_segments":[],"categories_sizes":[],"default_left":[0,0,0,0,0,0,0],"id":85,"left_children":[1,3,-1,-1,5,-1,-1],"loss_changes":[4.0066612E-1,6.1584795E-1,0E0,0E0,2.3669265E-1,0E0,0E0],"parents":[2147483647,0,0,1,1,4,4],"right_children":[2,4,-1,-1,6,-1,-1],"split_conditions":[1E0,1.4285715E-1,9.772373E-2,-1.1453115E-1,6E0,9.3056396E-2,-3.1540357E-2],"split_indices":[8,10,0,0,0,0,0],"split_type":[0,0,0,0,0,0,0],"sum_hessian":[8.981E0,7.121537E0,1.8594627E0,3.1912103E0,3.9303272E0,2.2120826E0,1.7182446E0],"tree_param":{"num_deleted":"0","num_feature":"13","num_nodes":"7","size_leaf_vector":"1"}},{"base_weights":[1.95129E-2,-7.671977E-2,1.0732366E-1,-1.7059112E-1,9.24774E-2,-8.424307E-2,8.749886E-2],"categories":[],"categories_nodes":[],"categories_segments":[],"categories_sizes":[],"default_left":[0,0,0,0,0,0,0],"id":86,"left_children":[1,3,-1,5,-1,-1,-1],"loss_changes":[4.7044525E-1,4.652505E-1,0E0,5.824385E-1,0E0,0E0,0E0],"parents":[2147483647,0,0,1,1,3,3],"right_children":[2,4,-1,6,-1,-1,-1],"split_conditions":[1E0,1E0,1.0732366E-1,3E0,9.24774E-2,-8.424307E-2,8.749886E-2],"split_indices":[2,3,0,12,0,0,0],"split_type":[0,0,0,0,0,0,0],"sum_hessian":[1.2610209E1,1.0419007E1,2.1912022E0,8.824226E0,1.5947813E0,7.4422317E0,1.3819942E0],"tree_param":{"num_deleted":"0","num_feature":"13","num_nodes":"7","size_leaf_vector":"1"}},{"base_weights":[-2.7975688E-2,-1.2490585E-1,9.176256E-2,-7.331366E-2,7.5300835E-2,9.682403E-2,-8.170927E-2],"categories":[],"categories_nodes":[],"categories_segments":[],"categories_sizes":[],"default_left":[0,0,0,0,0,0,0],"id":87,"left_children":[1,3,-1,-1,5,-1,-1],"loss_changes":[3.667885E-1,2.2361103E-1,0E0,0E0,4.2950076E-1,0E0,0E0],"parents":[2147483647,0,0,1,1,4,4],"right_children":[2,4,-1,-1,6,-1,-1],"split_conditions":[8.75E-1,1E0,9.176256E-2,-7.331366E-2,1E0,9.682403E-2,-8.170927E-2],"split_indices":[9,7,0,0,8,0,0],"split_type":[0,0,0,0,0,0,0],"sum_hessian":[9.153914E0,7.5792274E0,1.5746874E0,4.608487E0,2.9707403E0,1.7773844E0,1.193356E0],"tree_param":{"num_deleted":"0","num_feature":"13","num_nodes":"7","size_leaf_vector":"1"}},{"base_weights":[9.55293E-4,-1.070267E-1,9.12221E-2,-1.09785795E-1,1.3283221E-1,8.6258456E-2,-2.7420495E-2],"categories":[],"categories_nodes":[],"categories_segments":[],"categories_sizes":[],"default_left":[0,0,0,0,0,0,0],"id":88,"left_children":[1,3,-1,-1,5,-1,-1],"loss_changes":[3.1735116E-1,4.9300575E-1,0E0,0E0,1.8057972E-1,0E0,0E0],"parents":[2147483647,0,0,1,1,4,4],"right_children":[2,4,-1,-1,6,-1,-1],"split_conditions":[1E0,1.4285715E-1,9.12221E-2,-1.09785795E-1,6E0,8.6258456E-2,-2.7420495E-2],"split_indices":[8,10,0,0,0,0,0],"split_type":[0,0,0,0,0,0,0],"sum_hessian":[7.701363E0,6.155471E0,1.5458925E0,2.707281E0,3.4481897E0,1.8734511E0,1.5747386E0],"tree_param":{"num_deleted":"0","num_feature":"13","num_nodes":"7","size_leaf_vector":"1"}},{"base_weights":[2.3036208E-2,-6.7693256E-2,1.0119574E-1,-1.5667124E-1,8.688079E-2,-8.15754E-2,8.513205E-2],"categories":[],"categories_nodes":[],"categories_segments":[],"categories_sizes":[],"default_left":[0,0,0,0,0,0,0],"id":89,"left_children":[1,3,-1,5,-1,-1,-1],"loss_changes":[3.6416695E-1,3.67156E-1,0E0,5.214421E-1,0E0,0E0,0E0],"parents":[2147483647,0,0,1,1,3,3],"right_children":[2,4,-1,6,-1,-1,-1],"split_conditions":[1E0,1E0,1.0119574E-1,1E0,8.688079E-2,-8.15754E-2,8.513205E-2],"split_indices":[2,5,0,3,0,0,0],"split_type":[0,0,0,0,0,0,0],"sum_hessian":[1.0970406E1,9.121698E0,1.8487073E0,7.7525706E0,1.3691272E0,6.4480124E0,1.3045584E0],"tree_param":{"num_deleted":"0","num_feature":"13","num_nodes":"7","size_leaf_vector":"1"}},{"base_weights":[-2.8473217E-2,-1.1938293E-1,8.515631E-2,-2.2366188E-1,6.922498E-2,-8.877732E-2,-3.4666874E-2,9.007411E-2,-7.523584E-2],"categories":[],"categories_nodes":[],"categories_segments":[],"categories_sizes":[],"default_left":[0,0,0,0,0,0,0,0,0],"id":90,"left_children":[1,3,-1,5,7,-1,-1,-1,-1],"loss_changes":[2.8786057E-1,1.6558956E-1,0E0,6.0445666E-3,3.3264384E-1,0E0,0E0,0E0,0E0],"parents":[2147483647,0,0,1,1,3,3,4,4],"right_children":[2,4,-1,6,8,-1,-1,-1,-1],"split_conditions":[8.75E-1,1E0,8.515631E-2,2.857143E-1,1E0,-8.877732E-2,-3.4666874E-2,9.007411E-2,-7.523584E-2],"split_indices":[9,7,0,9,8,0,0,0,0],"split_type":[0,0,0,0,0,0,0,0,0],"sum_hessian":[7.9447308E0,6.632083E0,1.3126479E0,4.1511226E0,2.4809601E0,1.4467137E0,2.7044091E0,1.4766788E0,1.0042814E0],"tree_param":{"num_deleted":"0","num_feature":"13","num_nodes":"9","size_leaf_vector":"1"}},{"base_weights":[-3.5915535E-3,-1.0611424E-1,8.4923595E-2,-1.0380823E-1,1.05644196E-1,7.8578815E-2,-2.882786E-2],"categories":[],"categories_nodes":[],"categories_segments":[],"categories_sizes":[],"default_left":[0,0,0,0,0,0,0],"id":91,"left_children":[1,3,-1,-1,5,-1,-1],"loss_changes":[2.5635156E-1,3.616581E-1,0E0,0E0,1.5649039E-1,0E0,0E0],"parents":[2147483647,0,0,1,1,4,4],"right_children":[2,4,-1,-1,6,-1,-1],"split_conditions":[1E0,1.4285715E-1,8.4923595E-2,-1.0380823E-1,6E0,7.8578815E-2,-2.882786E-2],"split_indices":[8,10,0,0,0,0,0],"split_type":[0,0,0,0,0,0,0],"sum_hessian":[6.7002835E0,5.3991933E0,1.3010904E0,2.2340472E0,3.1651464E0,1.6153605E0,1.5497857E0],"tree_param":{"num_deleted":"0","num_feature":"13","num_nodes":"7","size_leaf_vector":"1"}},{"base_weights":[2.6522953E-2,2.3697193E-1,-1.0681235E-1,-2.0877244E-3,1.04138985E-1,-1.4854781E-2,-6.902464E-2,-3.543079E-2,1.775617E-2],"categories":[],"categories_nodes":[],"categories_segments":[],"categories_sizes":[],"default_left":[0,0,0,0,0,0,0,0,0],"id":92,"left_children":[1,3,5,-1,-1,7,-1,-1,-1],"loss_changes":[3.241056E-1,1.2173863E-1,7.82857E-2,0E0,0E0,4.672088E-2,0E0,0E0,0E0],"parents":[2147483647,0,0,1,1,2,2,5,5],"right_children":[2,4,6,-1,-1,8,-1,-1,-1],"split_conditions":[2.857143E-1,5E0,6.875E-1,-2.0877244E-3,1.04138985E-1,3E0,-6.902464E-2,-3.543079E-2,1.775617E-2],"split_indices":[9,0,9,0,0,1,0,0,0],"split_type":[0,0,0,0,0,0,0,0,0],"sum_hessian":[9.648293E0,3.440592E0,6.2077007E0,1.3618262E0,2.0787659E0,4.197173E0,2.010528E0,1.5043529E0,2.69282E0],"tree_param":{"num_deleted":"0","num_feature":"13","num_nodes":"9","size_leaf_vector":"1"}},{"base_weights":[-2.9329315E-2,-1.1324628E-1,7.902635E-2,-2.0747426E-1,6.931422E-2,-8.282164E-2,-3.2624893E-2,7.1113534E-2,-4.169098E-2],"categories":[],"categories_nodes":[],"categories_segments":[],"categories_sizes":[],"default_left":[0,0,0,0,0,0,0,0,0],"id":93,"left_children":[1,3,-1,5,7,-1,-1,-1,-1],"loss_changes":[2.2968505E-1,1.351767E-1,0E0,3.0392557E-3,1.4264448E-1,0E0,0E0,0E0,0E0],"parents":[2147483647,0,0,1,1,3,3,4,4],"right_children":[2,4,-1,6,8,-1,-1,-1,-1],"split_conditions":[8.75E-1,1E0,7.902635E-2,2.857143E-1,1.764706E-1,-8.282164E-2,-3.2624893E-2,7.1113534E-2,-4.169098E-2],"split_indices":[9,7,0,9,11,0,0,0,0],"split_type":[0,0,0,0,0,0,0,0,0],"sum_hessian":[7.1351323E0,6.0220695E0,1.1130626E0,3.8819473E0,2.1401224E0,1.2305357E0,2.6514115E0,1.1089785E0,1.0311439E0],"tree_param":{"num_deleted":"0","num_feature":"13","num_nodes":"9","size_leaf_vector":"1"}},{"base_weights":[2.1409465E-3,-9.3478255E-2,7.9542756E-2,-9.8971926E-2,1.0613135E-1,7.421822E-2,-2.4011696E-2],"categories":[],"categories_nodes":[],"categories_segments":[],"categories_sizes":[],"default_left":[0,0,0,0,0,0,0],"id":94,"left_children":[1,3,-1,-1,5,-1,-1],"loss_changes":[2.0074423E-1,3.1207067E-1,0E0,0E0,1.23413704E-1,0E0,0E0],"parents":[2147483647,0,0,1,1,4,4],"right_children":[2,4,-1,-1,6,-1,-1],"split_conditions":[1E0,1.4285715E-1,7.9542756E-2,-9.8971926E-2,6E0,7.421822E-2,-2.4011696E-2],"split_indices":[8,10,0,0,0,0,0],"split_type":[0,0,0,0,0,0,0],"sum_hessian":[5.9969454E0,4.8706865E0,1.1262589E0,1.9308856E0,2.9398007E0,1.4845172E0,1.4552836E0],"tree_param":{"num_deleted":"0","num_feature":"13","num_nodes":"7","size_leaf_vector":"1"}},{"base_weights":[2.279405E-2,2.2228424E-1,-9.904888E-2,-8.070079E-3,9.437002E-2,-1.7686768E-2,-6.257756E-2,-3.3110872E-2,1.5175633E-2],"categories":[],"categories_nodes":[],"categories_segments":[],"categories_sizes":[],"default_left":[0,0,0,0,0,0,0,0,0],"id":95,"left_children":[1,3,5,-1,-1,7,-1,-1,-1],"loss_changes":[2.605117E-1,1.0110441E-1,5.6767277E-2,0E0,0E0,3.7126012E-2,0E0,0E0,0E0],"parents":[2147483647,0,0,1,1,2,2,5,5],"right_children":[2,4,6,-1,-1,8,-1,-1,-1],"split_conditions":[2.857143E-1,4E0,6.875E-1,-8.070079E-3,9.437002E-2,3E0,-6.257756E-2,-3.3110872E-2,1.5175633E-2],"split_indices":[9,0,9,0,0,1,0,0,0],"split_type":[0,0,0,0,0,0,0,0,0],"sum_hessian":[8.811985E0,3.028747E0,5.7832375E0,1.0100026E0,2.0187445E0,3.9849265E0,1.798311E0,1.4287372E0,2.5561895E0],"tree_param":{"num_deleted":"0","num_feature":"13","num_nodes":"9","size_leaf_vector":"1"}},{"base_weights":[-2.8164618E-2,-1.0494455E-1,6.2782735E-2,-1.8663529E-1,1.8034391E-2,-7.7128775E-2,-2.7173497E-2],"categories":[],"categories_nodes":[],"categories_segments":[],"categories_sizes":[],"default_left":[0,0,0,0,0,0,0],"id":96,"left_children":[1,3,-1,5,-1,-1,-1],"loss_changes":[1.5970829E-1,9.718552E-2,0E0,7.226646E-3,0E0,0E0,0E0],"parents":[2147483647,0,0,1,1,3,3],"right_children":[2,4,-1,6,-1,-1,-1],"split_conditions":[8.4615386E-1,1E0,6.2782735E-2,2.857143E-1,1.8034391E-2,-7.7128775E-2,-2.7173497E-2],"split_indices":[9,7,0,9,0,0,0],"split_type":[0,0,0,0,0,0,0],"sum_hessian":[6.5557313E0,5.3754997E0,1.1802316E0,3.5084083E0,1.8670915E0,1.0567542E0,2.451654E0],"tree_param":{"num_deleted":"0","num_feature":"13","num_nodes":"7","size_leaf_vector":"1"}},{"base_weights":[7.914628E-3,-8.376183E-2,7.5578876E-2,-9.460721E-2,1.0568178E-1,7.028778E-2,-2.0032857E-2],"categories":[],"categories_nodes":[],"categories_segments":[],"categories_sizes":[],"default_left":[0,0,0,0,0,0,0],"id":97,"left_children":[1,3,-1,-1,5,-1,-1],"loss_changes":[1.6559508E-1,2.7225032E-1,0E0,0E0,9.86958E-2,0E0,0E0],"parents":[2147483647,0,0,1,1,4,4],"right_children":[2,4,-1,-1,6,-1,-1],"split_conditions":[1E0,1.4285715E-1,7.5578876E-2,-9.460721E-2,6E0,7.028778E-2,-2.0032857E-2],"split_indices":[8,10,0,0,0,0,0],"split_type":[0,0,0,0,0,0,0],"sum_hessian":[5.4591084E0,4.445622E0,1.0134863E0,1.7012218E0,2.7444003E0,1.3666613E0,1.377739E0],"tree_param":{"num_deleted":"0","num_feature":"13","num_nodes":"7","size_leaf_vector":"1"}},{"base_weights":[1.7680924E-2,-6.613361E-2,8.785168E-2,-1.527091E-1,7.666685E-2,-1.9423127E-2,-8.685315E-2],"categories":[],"categories_nodes":[],"categories_segments":[],"categories_sizes":[],"default_left":[0,0,0,0,0,0,0],"id":98,"left_children":[1,3,-1,5,-1,-1,-1],"loss_changes":[2.3035447E-1,2.5704846E-1,0E0,6.3016415E-2,0E0,0E0,0E0],"parents":[2147483647,0,0,1,1,3,3],"right_children":[2,4,-1,6,-1,-1,-1],"split_conditions":[1E0,3E0,8.785168E-2,1E0,7.666685E-2,-1.9423127E-2,-8.685315E-2],"split_indices":[2,12,0,4,0,0,0],"split_type":[0,0,0,0,0,0,0],"sum_hessian":[8.148634E0,6.8283386E0,1.3202947E0,5.7942414E0,1.0340976E0,4.4232764E0,1.3709648E0],"tree_param":{"num_deleted":"0","num_feature":"13","num_nodes":"7","size_leaf_vector":"1"}},{"base_weights":[-2.5089275E-2,-7.0543386E-2,5.4885928E-2,5.084397E-2,-3.4815956E-2,-3.1583603E-2,1.8104687E-2],"categories":[],"categories_nodes":[],"categories_segments":[],"categories_sizes":[],"default_left":[0,0,0,0,0,0,0],"id":99,"left_children":[1,-1,3,-1,5,-1,-1],"loss_changes":[1.3309246E-1,0E0,6.749685E-2,0E0,3.4454998E-2,0E0,0E0],"parents":[2147483647,0,0,2,2,4,4],"right_children":[2,-1,4,-1,6,-1,-1],"split_conditions":[2.857143E-1,-7.0543386E-2,1.4285715E-1,5.084397E-2,7E0,-3.1583603E-2,1.8104687E-2],"split_indices":[9,0,11,0,0,0,0],"split_type":[0,0,0,0,0,0,0],"sum_hessian":[6.154281E0,1.1620173E0,4.992264E0,1.8014927E0,3.1907713E0,1.7722629E0,1.4185083E0],"tree_param":{"num_deleted":"0","num_feature":"13","num_nodes":"7","size_leaf_vector":"1"}},{"base_weights":[8.952201E-3,1.13170534E-1,-1.0617455E-1,-7.2816494E-3,6.40746E-2,-7.655138E-2,2.5584722E-2],"categories":[],"categories_nodes":[],"categories_segments":[],"categories_sizes":[],"default_left":[0,0,0,0,0,0,0],"id":100,"left_children":[1,3,5,-1,-1,-1,-1],"loss_changes":[8.364616E-2,5.510882E-2,1.17396906E-1,0E0,0E0,0E0,0E0],"parents":[2147483647,0,0,1,1,2,2],"right_children":[2,4,6,-1,-1,-1,-1],"split_conditions":[6E0,1E0,5.714286E-1,-7.2816494E-3,6.40746E-2,-7.655138E-2,2.5584722E-2],"split_indices":[0,4,9,0,0,0,0],"split_type":[0,0,0,0,0,0,0],"sum_hessian":[4.9700313E0,2.6175182E0,2.352513E0,1.425109E0,1.1924092E0,1.13581E0,1.2167029E0],"tree_param":{"num_deleted":"0","num_feature":"13","num_nodes":"7","size_leaf_vector":"1"}},{"base_weights":[1.476571E-2,-6.899907E-2,8.481799E-2,4.0633738E-2,-1.6096787E-1,-1.6551705E-2,-6.374764E-2],"categories":[],"categories_nodes":[],"categories_segments":[],"categories_sizes":[],"default_left":[0,0,0,0,0,0,0],"id":101,"left_children":[1,3,-1,-1,5,-1,-1],"loss_changes":[2.1094373E-1,1.5908921E-1,0E0,0E0,1.821883E-2,0E0,0E0],"parents":[2147483647,0,0,1,1,4,4],"right_children":[2,4,-1,-1,6,-1,-1],"split_conditions":[1E0,2.857143E-1,8.481799E-2,4.0633738E-2,5.4545456E-1,-1.6551705E-2,-6.374764E-2],"split_indices":[5,9,0,0,9,0,0],"split_type":[0,0,0,0,0,0,0],"sum_hessian":[7.528849E0,6.301499E0,1.2273499E0,1.8085008E0,4.492998E0,2.1497295E0,2.3432686E0],"tree_param":{"num_deleted":"0","num_feature":"13","num_nodes":"7","size_leaf_vector":"1"}},{"base_weights":[-2.715757E-2,-9.382646E-2,5.4062437E-2,-1.6716604E-1,1.6449962E-2,-6.5328255E-2,-2.149703E-2],"categories":[],"categories_nodes":[],"categories_segments":[],"categories_sizes":[],"default_left":[0,0,0,0,0,0,0],"id":102,"left_children":[1,3,-1,5,-1,-1,-1],"loss_changes":[1.1195192E-1,7.305461E-2,0E0,4.5514777E-3,0E0,0E0,0E0],"parents":[2147483647,0,0,1,1,3,3],"right_children":[2,4,-1,6,-1,-1,-1],"split_conditions":[8.4615386E-1,1E0,5.4062437E-2,3.5E-1,1.6449962E-2,-6.5328255E-2,-2.149703E-2],"split_indices":[9,7,0,11,0,0,0],"split_type":[0,0,0,0,0,0,0],"sum_hessian":[5.8748446E0,4.8598995E0,1.0149455E0,3.1710227E0,1.6888766E0,1.236177E0,1.9348457E0],"tree_param":{"num_deleted":"0","num_feature":"13","num_nodes":"7","size_leaf_vector":"1"}},{"base_weights":[1.0659837E-2,1.06791176E-1,-9.802346E-2,-7.1727433E-3,6.1027918E-2,-7.167325E-2,2.336377E-2],"categories":[],"categories_nodes":[],"categories_segments":[],"categories_sizes":[],"default_left":[0,0,0,0,0,0,0],"id":103,"left_children":[1,3,5,-1,-1,-1,-1],"loss_changes":[7.019845E-2,4.922467E-2,9.802705E-2,0E0,0E0,0E0,0E0],"parents":[2147483647,0,0,1,1,2,2],"right_children":[2,4,6,-1,-1,-1,-1],"split_conditions":[6E0,1E0,5.714286E-1,-7.1727433E-3,6.1027918E-2,-7.167325E-2,2.336377E-2],"split_indices":[0,4,9,0,0,0,0],"split_type":[0,0,0,0,0,0,0],"sum_hessian":[4.7169933E0,2.5122743E0,2.2047193E0,1.3878175E0,1.1244568E0,1.0253097E0,1.1794096E0],"tree_param":{"num_deleted":"0","num_feature":"13","num_nodes":"7","size_leaf_vector":"1"}},{"base_weights":[1.5558751E-2,-6.486318E-2,8.130787E-2,-8.091405E-2,2.3057064E-2,-1.4342144E-2,3.8386106E-2],"categories":[],"categories_nodes":[],"categories_segments":[],"categories_sizes":[],"default_left":[0,0,0,0,0,0,0],"id":104,"left_children":[1,3,-1,-1,5,-1,-1],"loss_changes":[1.8381976E-1,1.3158979E-1,0E0,0E0,4.9170148E-2,0E0,0E0],"parents":[2147483647,0,0,1,1,4,4],"right_children":[2,4,-1,-1,6,-1,-1],"split_conditions":[1E0,2E-1,8.130787E-2,-8.091405E-2,7.2727275E-1,-1.4342144E-2,3.8386106E-2],"split_indices":[2,11,0,0,11,0,0],"split_type":[0,0,0,0,0,0,0],"sum_hessian":[7.0914383E0,5.960998E0,1.1304401E0,1.169172E0,4.7918262E0,3.1846447E0,1.6071813E0],"tree_param":{"num_deleted":"0","num_feature":"13","num_nodes":"7","size_leaf_vector":"1"}},{"base_weights":[-2.6576323E-2,-5.0768945E-2,5.423246E-2,5.2312203E-2,-4.038125E-2,-3.1747196E-2,1.6399136E-2],"categories":[],"categories_nodes":[],"categories_segments":[],"categories_sizes":[],"default_left":[0,0,0,0,0,0,0],"id":105,"left_children":[1,-1,3,-1,5,-1,-1],"loss_changes":[8.517608E-2,0E0,6.3489504E-2,0E0,2.8115109E-2,0E0,0E0],"parents":[2147483647,0,0,2,2,4,4],"right_children":[2,-1,4,-1,6,-1,-1],"split_conditions":[3.75E-1,-5.0768945E-2,1.4285715E-1,5.2312203E-2,7E0,-3.1747196E-2,1.6399136E-2],"split_indices":[9,0,11,0,0,0,0],"split_type":[0,0,0,0,0,0,0],"sum_hessian":[5.5926976E0,1.6267537E0,3.9659438E0,1.3758564E0,2.5900874E0,1.4667534E0,1.123334E0],"tree_param":{"num_deleted":"0","num_feature":"13","num_nodes":"7","size_leaf_vector":"1"}},{"base_weights":[1.563906E-2,1.05214E-1,-8.927466E-2,-5.0969236E-3,5.8500037E-2,-6.3934706E-2,2.3507364E-2],"categories":[],"categories_nodes":[],"categories_segments":[],"categories_sizes":[],"default_left":[0,0,0,0,0,0,0],"id":106,"left_children":[1,3,5,-1,-1,-1,-1],"loss_changes":[6.1568536E-2,4.1210435E-2,8.101386E-2,0E0,0E0,0E0,0E0],"parents":[2147483647,0,0,1,1,2,2],"right_children":[2,4,6,-1,-1,-1,-1],"split_conditions":[6E0,1E0,6.25E-1,-5.0969236E-3,5.8500037E-2,-6.3934706E-2,2.3507364E-2],"split_indices":[0,4,9,0,0,0,0],"split_type":[0,0,0,0,0,0,0],"sum_hessian":[4.551988E0,2.4539516E0,2.0980368E0,1.3827413E0,1.0712101E0,1.0505793E0,1.0474575E0],"tree_param":{"num_deleted":"0","num_feature":"13","num_nodes":"7","size_leaf_vector":"1"}},{"base_weights":[1.1520538E-2,-6.620738E-2,7.77482E-2,3.2320958E-2,-1.4211653E-1,-1.5957449E-2,-5.4964084E-2],"categories":[],"categories_nodes":[],"categories_segments":[],"categories_sizes":[],"default_left":[0,0,0,0,0,0,0],"id":107,"left_children":[1,3,-1,-1,5,-1,-1],"loss_changes":[1.6492476E-1,1.02976695E-1,0E0,0E0,8.722603E-3,0E0,0E0],"parents":[2147483647,0,0,1,1,4,4],"right_children":[2,4,-1,-1,6,-1,-1],"split_conditions":[1E0,2.857143E-1,7.77482E-2,3.2320958E-2,5.4545456E-1,-1.5957449E-2,-5.4964084E-2],"split_indices":[5,9,0,0,9,0,0],"split_type":[0,0,0,0,0,0,0],"sum_hessian":[6.6767545E0,5.6393523E0,1.0374022E0,1.5859364E0,4.053416E0,2.0063672E0,2.0470488E0],"tree_param":{"num_deleted":"0","num_feature":"13","num_nodes":"7","size_leaf_vector":"1"}},{"base_weights":[-2.7052648E-2,-8.243933E-2,4.0246636E-2,-1.4415199E-1,1.3545168E-2,-5.977433E-2,-1.5791645E-2],"categories":[],"categories_nodes":[],"categories_segments":[],"categories_sizes":[],"default_left":[0,0,0,0,0,0,0],"id":108,"left_children":[1,3,-1,5,-1,-1,-1],"loss_changes":[6.8081886E-2,4.881218E-2,0E0,8.97222E-3,0E0,0E0,0E0],"parents":[2147483647,0,0,1,1,3,3],"right_children":[2,4,-1,6,-1,-1,-1],"split_conditions":[8.181818E-1,1E0,4.0246636E-2,3.5E-1,1.3545168E-2,-5.977433E-2,-1.5791645E-2],"split_indices":[9,7,0,11,0,0,0],"split_type":[0,0,0,0,0,0,0],"sum_hessian":[5.3863354E0,4.372634E0,1.0137016E0,2.8596644E0,1.5129695E0,1.0501566E0,1.8095077E0],"tree_param":{"num_deleted":"0","num_feature":"13","num_nodes":"7","size_leaf_vector":"1"}},{"base_weights":[1.6352465E-2,9.8878704E-2,-2.4621256E-2,-5.2415184E-3,5.567242E-2],"categories":[],"categories_nodes":[],"categories_segments":[],"categories_sizes":[],"default_left":[0,0,0,0,0],"id":109,"left_children":[1,3,-1,-1,-1],"loss_changes":[5.166737E-2,3.7236445E-2,0E0,0E0,0E0],"parents":[2147483647,0,0,1,1],"right_children":[2,4,-1,-1,-1],"split_conditions":[6E0,1E0,-2.4621256E-2,-5.2415184E-3,5.567242E-2],"split_indices":[0,4,0,0,0],"split_type":[0,0,0,0,0],"sum_hessian":[4.361931E0,2.3700545E0,1.9918764E0,1.3528854E0,1.017169E0],"tree_param":{"num_deleted":"0","num_feature":"13","num_nodes":"5","size_leaf_vector":"1"}},{"base_weights":[1.1559147E-2,4.7433805E-2,-7.026702E-2,-1.4945074E-2,-4.289773E-2,-2.9292623E-2,1.483714E-2],"categories":[],"categories_nodes":[],"categories_segments":[],"categories_sizes":[],"default_left":[0,0,0,0,0,0,0],"id":110,"left_children":[1,-1,3,5,-1,-1,-1],"loss_changes":[9.934703E-2,0E0,1.9645369E-2,2.7153341E-2,0E0,0E0,0E0],"parents":[2147483647,0,0,2,2,3,3],"right_children":[2,-1,4,6,-1,-1,-1],"split_conditions":[2.857143E-1,4.7433805E-2,6.875E-1,3E0,-4.289773E-2,-2.9292623E-2,1.483714E-2],"split_indices":[9,0,9,1,0,0,0],"split_type":[0,0,0,0,0,0,0],"sum_hessian":[6.3580356E0,1.9439871E0,4.414048E0,3.1916623E0,1.2223859E0,1.171388E0,2.0202744E0],"tree_param":{"num_deleted":"0","num_feature":"13","num_nodes":"7","size_leaf_vector":"1"}},{"base_weights":[-2.7502086E-2,2.8837422E-2,-9.284284E-2,-4.009075E-2,-3.2858385E-3],"categories":[],"categories_nodes":[],"categories_segments":[],"categories_sizes":[],"default_left":[0,0,0,0,0],"id":111,"left_children":[1,-1,3,-1,-1],"loss_changes":[5.9417043E-2,0E0,1.3896275E-2,0E0,0E0],"parents":[2147483647,0,0,2,2],"right_children":[2,-1,4,-1,-1],"split_conditions":[1.4285715E-1,2.8837422E-2,7E0,-4.009075E-2,-3.2858385E-3],"split_indices":[11,0,0,0,0],"split_type":[0,0,0,0,0],"sum_hessian":[5.2507253E0,1.652677E0,3.5980484E0,1.979887E0,1.6181613E0],"tree_param":{"num_deleted":"0","num_feature":"13","num_nodes":"5","size_leaf_vector":"1"}},{"base_weights":[2.2748588E-2,-4.812731E-2,4.1728664E-2,-7.624552E-2,3.2283954E-2],"categories":[],"categories_nodes":[],"categories_segments":[],"categories_sizes":[],"default_left":[0,0,0,0,0],"id":112,"left_children":[1,3,-1,-1,-1],"loss_changes":[5.031794E-2,1.5667185E-1,0E0,0E0,0E0],"parents":[2147483647,0,0,1,1],"right_children":[2,4,-1,-1,-1],"split_conditions":[1E0,1.4285715E-1,4.1728664E-2,-7.624552E-2,3.2283954E-2],"split_indices":[7,10,0,0,0],"split_type":[0,0,0,0,0],"sum_hessian":[4.2901545E0,3.0304317E0,1.2597227E0,1.032576E0,1.9978558E0],"tree_param":{"num_deleted":"0","num_feature":"13","num_nodes":"5","size_leaf_vector":"1"}},{"base_weights":[7.199217E-3,4.647972E-2,-6.56807E-2,-2.373263E-3,-1.1387238E-1,-2.641934E-2,2.2978222E-2,-4.200525E-2,-1.0337556E-2],"categories":[],"categories_nodes":[],"categories_segments":[],"categories_sizes":[],"default_left":[0,0,0,0,0,0,0,0,0],"id":113,"left_children":[1,-1,3,5,7,-1,-1,-1,-1],"loss_changes":[8.71768E-2,0E0,1.6483424E-2,2.9716864E-2,1.6047172E-3,0E0,0E0,0E0,0E0],"parents":[2147483647,0,0,2,2,3,3,4,4],"right_children":[2,-1,4,6,8,-1,-1,-1,-1],"split_conditions":[2.5E-1,4.647972E-2,5.4545456E-1,3E0,2.5E-1,-2.641934E-2,2.2978222E-2,-4.200525E-2,-1.0337556E-2],"split_indices":[9,0,9,1,11,0,0,0,0],"split_type":[0,0,0,0,0,0,0,0,0],"sum_hessian":[6.151695E0,1.6602936E0,4.491401E0,2.3947554E0,2.0966458E0,1.0932341E0,1.3015213E0,1.0032221E0,1.0934237E0],"tree_param":{"num_deleted":"0","num_feature":"13","num_nodes":"9","size_leaf_vector":"1"}},{"base_weights":[-2.3729756E-2,-4.1746404E-2,4.179147E-2,-3.093116E-2,4.566255E-2,1.654978E-2,-2.5336849E-2],"categories":[],"categories_nodes":[],"categories_segments":[],"categories_sizes":[],"default_left":[0,0,0,0,0,0,0],"id":114,"left_children":[1,-1,3,5,-1,-1,-1],"loss_changes":[5.1941413E-2,0E0,4.212383E-2,2.143552E-2,0E0,0E0,0E0],"parents":[2147483647,0,0,2,2,3,3],"right_children":[2,-1,4,6,-1,-1,-1],"split_conditions":[3.75E-1,-4.1746404E-2,8E0,1.5E-1,4.566255E-2,1.654978E-2,-2.5336849E-2],"split_indices":[9,0,0,11,0,0,0],"split_type":[0,0,0,0,0,0,0],"sum_hessian":[5.0990696E0,1.439455E0,3.6596146E0,2.640442E0,1.0191727E0,1.0004773E0,1.6399646E0],"tree_param":{"num_deleted":"0","num_feature":"13","num_nodes":"7","size_leaf_vector":"1"}},{"base_weights":[2.0412927E-2,9.612597E-2,-2.152048E-2,5.597269E-3,3.792194E-2],"categories":[],"categories_nodes":[],"categories_segments":[],"categories_sizes":[],"default_left":[0,0,0,0,0],"id":115,"left_children":[1,3,-1,-1,-1],"loss_changes":[4.2630885E-2,5.2397884E-3,0E0,0E0,0E0],"parents":[2147483647,0,0,1,1],"right_children":[2,4,-1,-1,-1],"split_conditions":[6E0,5.294118E-1,-2.152048E-2,5.597269E-3,3.792194E-2],"split_indices":[0,11,0,0,0],"split_type":[0,0,0,0,0],"sum_hessian":[4.1220217E0,2.2391002E0,1.8829215E0,1.0834368E0,1.1556634E0],"tree_param":{"num_deleted":"0","num_feature":"13","num_nodes":"5","size_leaf_vector":"1"}},{"base_weights":[5.7678497E-3,4.3779314E-2,-6.327215E-2,-3.8439934E-3,-3.2491174E-2,-2.5399707E-2,2.1378702E-2],"categories":[],"categories_nodes":[],"categories_segments":[],"categories_sizes":[],"default_left":[0,0,0,0,0,0,0],"id":116,"left_children":[1,-1,3,5,-1,-1,-1],"loss_changes":[7.6856874E-2,0E0,1.3980124E-2,2.6404323E-2,0E0,0E0,0E0],"parents":[2147483647,0,0,2,2,3,3],"right_children":[2,-1,4,6,-1,-1,-1],"split_conditions":[2.5E-1,4.3779314E-2,5.4545456E-1,3E0,-3.2491174E-2,-2.5399707E-2,2.1378702E-2],"split_indices":[9,0,9,1,0,0,0],"split_type":[0,0,0,0,0,0,0],"sum_hessian":[5.988162E0,1.6086353E0,4.3795266E0,2.355866E0,2.023661E0,1.0734509E0,1.2824149E0],"tree_param":{"num_deleted":"0","num_feature":"13","num_nodes":"7","size_leaf_vector":"1"}},{"base_weights":[-2.3253692E-2,2.4518047E-2,-7.8481905E-2,-3.8576525E-2,-5.1877173E-3],"categories":[],"categories_nodes":[],"categories_segments":[],"categories_sizes":[],"default_left":[0,0,0,0,0],"id":117,"left_children":[1,-1,3,-1,-1],"loss_changes":[4.1067988E-2,0E0,1.1348601E-2,0E0,0E0],"parents":[2147483647,0,0,2,2],"right_children":[2,-1,4,-1,-1],"split_conditions":[1.25E-1,2.4518047E-2,6E0,-3.8576525E-2,-5.1877173E-3],"split_indices":[11,0,0,0,0],"split_type":[0,0,0,0,0],"sum_hessian":[4.976991E0,1.5503008E0,3.4266906E0,1.2783802E0,2.1483104E0],"tree_param":{"num_deleted":"0","num_feature":"13","num_nodes":"5","size_leaf_vector":"1"}},{"base_weights":[2.0873487E-2,-6.583129E-2,3.20531E-2,-3.416077E-2,3.299136E-3],"categories":[],"categories_nodes":[],"categories_segments":[],"categories_sizes":[],"default_left":[0,0,0,0,0],"id":118,"left_children":[1,3,-1,-1,-1],"loss_changes":[4.4731155E-2,1.282866E-2,0E0,0E0,0E0],"parents":[2147483647,0,0,1,1],"right_children":[2,4,-1,-1,-1],"split_conditions":[1.4285715E-1,4E-1,3.20531E-2,-3.416077E-2,3.299136E-3],"split_indices":[10,11,0,0,0],"split_type":[0,0,0,0,0],"sum_hessian":[4.0573344E0,2.136666E0,1.9206685E0,1.0180149E0,1.118651E0],"tree_param":{"num_deleted":"0","num_feature":"13","num_nodes":"5","size_leaf_vector":"1"}},{"base_weights":[4.901238E-3,4.055122E-2,-5.832192E-2,-1.5482422E-2,-3.5105765E-2,-2.2172557E-2,9.323363E-3],"categories":[],"categories_nodes":[],"categories_segments":[],"categories_sizes":[],"default_left":[0,0,0,0,0,0,0],"id":119,"left_children":[1,-1,3,5,-1,-1,-1],"loss_changes":[6.432332E-2,0E0,1.1546226E-2,1.378607E-2,0E0,0E0,0E0],"parents":[2147483647,0,0,2,2,3,3],"right_children":[2,-1,4,6,-1,-1,-1],"split_conditions":[2.5E-1,4.055122E-2,6.875E-1,3E0,-3.5105765E-2,-2.2172557E-2,9.323363E-3],"split_indices":[9,0,9,1,0,0,0],"split_type":[0,0,0,0,0,0,0],"sum_hessian":[5.8527894E0,1.5405456E0,4.3122435E0,3.22343E0,1.0888138E0,1.1690623E0,2.0543675E0],"tree_param":{"num_deleted":"0","num_feature":"13","num_nodes":"7","size_leaf_vector":"1"}}]},"name":"gbtree"},"learner_model_param":{"base_score":"[6.7103136E-1,-4.7706783E-1,-1.9396377E-1]","boost_from_average":"1","num_class":"3","num_feature":"13","num_target":"1"},"objective":{"name":"multi:softprob","softmax_multiclass_param":{"num_class":"3"}}},"version":[3,3,0]}